<?xml version="1.0"?>
<MethodSetup Method="BDT::BDTs">
  <GeneralInfo>
    <Info name="TMVA Release" value="4.2.1 [262657]"/>
    <Info name="ROOT Release" value="6.30/04 [400900]"/>
    <Info name="Creator" value="u25lekai"/>
    <Info name="Date" value="Mon Aug 11 17:12:21 2025"/>
    <Info name="Host" value="Linux pauli02.a.incd.pt 3.10.0-1160.108.1.el7.x86_64 #1 SMP Thu Jan 25 16:17:31 UTC 2024 x86_64 x86_64 x86_64 GNU/Linux"/>
    <Info name="Dir" value="/user/u/u25lekai/work/analysis_X/TMVA"/>
    <Info name="Training events" value="533705"/>
    <Info name="TrainingTime" value="3.01653137e+02"/>
    <Info name="AnalysisType" value="Classification"/>
  </GeneralInfo>
  <Options>
    <Option name="V" modified="Yes">False</Option>
    <Option name="VerbosityLevel" modified="No">Default</Option>
    <Option name="VarTransform" modified="Yes">Decorrelate</Option>
    <Option name="H" modified="Yes">False</Option>
    <Option name="CreateMVAPdfs" modified="No">False</Option>
    <Option name="IgnoreNegWeightsInTraining" modified="No">False</Option>
    <Option name="NTrees" modified="Yes">250</Option>
    <Option name="MaxDepth" modified="Yes">5</Option>
    <Option name="MinNodeSize" modified="Yes">2.5%</Option>
    <Option name="nCuts" modified="Yes">30</Option>
    <Option name="BoostType" modified="Yes">AdaBoost</Option>
    <Option name="AdaBoostR2Loss" modified="No">quadratic</Option>
    <Option name="UseBaggedBoost" modified="No">False</Option>
    <Option name="Shrinkage" modified="No">1.000000e+00</Option>
    <Option name="AdaBoostBeta" modified="No">5.000000e-01</Option>
    <Option name="UseRandomisedTrees" modified="No">False</Option>
    <Option name="UseNvars" modified="No">2</Option>
    <Option name="UsePoissonNvars" modified="No">True</Option>
    <Option name="BaggedSampleFraction" modified="No">6.000000e-01</Option>
    <Option name="UseYesNoLeaf" modified="No">True</Option>
    <Option name="NegWeightTreatment" modified="No">inverseboostnegweights</Option>
    <Option name="Css" modified="No">1.000000e+00</Option>
    <Option name="Cts_sb" modified="No">1.000000e+00</Option>
    <Option name="Ctb_ss" modified="No">1.000000e+00</Option>
    <Option name="Cbb" modified="No">1.000000e+00</Option>
    <Option name="NodePurityLimit" modified="No">5.000000e-01</Option>
    <Option name="SeparationType" modified="Yes">giniindex</Option>
    <Option name="RegressionLossFunctionBDTG" modified="No">huber</Option>
    <Option name="HuberQuantile" modified="No">7.000000e-01</Option>
    <Option name="DoBoostMonitor" modified="No">False</Option>
    <Option name="UseFisherCuts" modified="No">False</Option>
    <Option name="MinLinCorrForFisher" modified="No">8.000000e-01</Option>
    <Option name="UseExclusiveVars" modified="No">False</Option>
    <Option name="DoPreselection" modified="No">False</Option>
    <Option name="SigToBkgFraction" modified="No">1.000000e+00</Option>
    <Option name="PruneMethod" modified="No">nopruning</Option>
    <Option name="PruneStrength" modified="No">0.000000e+00</Option>
    <Option name="PruningValFraction" modified="No">5.000000e-01</Option>
    <Option name="SkipNormalization" modified="No">False</Option>
    <Option name="nEventsMin" modified="No">0</Option>
    <Option name="UseBaggedGrad" modified="No">False</Option>
    <Option name="GradBaggingFraction" modified="No">6.000000e-01</Option>
    <Option name="UseNTrainEvents" modified="No">0</Option>
    <Option name="NNodesMax" modified="No">0</Option>
  </Options>
  <Variables NVar="5">
    <Variable VarIndex="0" Expression="B_alpha" Label="B_alpha" Title="B_alpha" Unit="" Internal="B_alpha" Type="F" Min="1.78540475e-04" Max="3.14025283e+00"/>
    <Variable VarIndex="1" Expression="B_chi2cl" Label="B_chi2cl" Title="B_chi2cl" Unit="" Internal="B_chi2cl" Type="F" Min="0.00000000e+00" Max="9.99998927e-01"/>
    <Variable VarIndex="2" Expression="B_Qvalue" Label="B_Qvalue" Title="B_Qvalue" Unit="" Internal="B_Qvalue" Type="F" Min="-5.53871691e-01" Max="4.23416138e-01"/>
    <Variable VarIndex="3" Expression="B_norm_trk1Dxy" Label="B_norm_trk1Dxy" Title="B_norm_trk1Dxy" Unit="" Internal="B_norm_trk1Dxy" Type="F" Min="-1.53156052e+02" Max="2.11918869e+02"/>
    <Variable VarIndex="4" Expression="B_norm_svpvDistance" Label="B_norm_svpvDistance" Title="B_norm_svpvDistance" Unit="" Internal="B_norm_svpvDistance" Type="F" Min="1.14882309e-02" Max="5.69473682e+03"/>
  </Variables>
  <Spectators NSpec="0"/>
  <Classes NClass="2">
    <Class Name="Signal" Index="0"/>
    <Class Name="Background" Index="1"/>
  </Classes>
  <Transformations NTransformations="1">
    <Transform Name="Decorrelation">
      <Selection>
        <Input NInputs="5">
          <Input Type="Variable" Label="B_alpha" Expression="B_alpha"/>
          <Input Type="Variable" Label="B_chi2cl" Expression="B_chi2cl"/>
          <Input Type="Variable" Label="B_Qvalue" Expression="B_Qvalue"/>
          <Input Type="Variable" Label="B_norm_trk1Dxy" Expression="B_norm_trk1Dxy"/>
          <Input Type="Variable" Label="B_norm_svpvDistance" Expression="B_norm_svpvDistance"/>
        </Input>
        <Output NOutputs="5">
          <Output Type="Variable" Label="B_alpha" Expression="B_alpha"/>
          <Output Type="Variable" Label="B_chi2cl" Expression="B_chi2cl"/>
          <Output Type="Variable" Label="B_Qvalue" Expression="B_Qvalue"/>
          <Output Type="Variable" Label="B_norm_trk1Dxy" Expression="B_norm_trk1Dxy"/>
          <Output Type="Variable" Label="B_norm_svpvDistance" Expression="B_norm_svpvDistance"/>
        </Output>
      </Selection>
      <Matrix Rows="5" Columns="5">
        7.637207934705957e-01 1.712795371296944e-02 -3.524418761890236e-02 6.155151351494741e-03 5.236353272024766e-04 1.712795371296944e-02 3.147807749550608e+00 -9.138595470225995e-03 -3.758821307021486e-03 5.675178140952745e-02 -3.524418761890234e-02 -9.138595470225995e-03 1.791569753093256e+01 1.716618150964895e-04 1.125339623301223e-02 6.155151351494739e-03 -3.758821307021485e-03 1.716618150964894e-04 2.822912413645013e-01 -5.269884921289688e-04 5.236353272024745e-04 5.675178140952745e-02 1.125339623301223e-02 -5.269884921289688e-04 7.726256121064398e-01 
      </Matrix>
      <Matrix Rows="5" Columns="5">
        8.576491680963597e-01 -3.122992921506512e-04 1.263544933607757e-02 -1.846799741233916e-04 -1.029594889781286e-04 -3.122992921506511e-04 3.233414949570459e+00 -4.385721834556439e-02 -1.196850936389766e-03 -1.969204753029101e-04 1.263544933607758e-02 -4.385721834556439e-02 9.626480731373388e+00 -5.323426997699899e-04 1.766692924953977e-05 -1.846799741233916e-04 -1.196850936389766e-03 -5.323426997699900e-04 5.646174047646469e-02 -5.266072841379808e-05 -1.029594889781287e-04 -1.969204753029101e-04 1.766692924953977e-05 -5.266072841379808e-05 3.081853560904279e-03 
      </Matrix>
      <Matrix Rows="5" Columns="5">
        8.570628732989798e-01 -2.938108617295480e-04 1.253527797661454e-02 -1.828173747929679e-04 -1.024865031030496e-04 -2.938108617295481e-04 3.223518703333994e+00 -3.294764147753126e-02 -1.201662141621501e-03 -1.818342460219399e-04 1.253527797661454e-02 -3.294764147753126e-02 9.627723168019399e+00 -5.306039169094865e-04 5.919299186481805e-06 -1.828173747929678e-04 -1.201662141621501e-03 -5.306039169094865e-04 5.660279212228895e-02 -5.248799148975077e-05 -1.024865031030496e-04 -1.818342460219399e-04 5.919299186481805e-06 -5.248799148975077e-05 3.083978843987341e-03 
      </Matrix>
    </Transform>
  </Transformations>
  <MVAPdfs/>
  <Weights NTrees="250" AnalysisType="0">
    <BinaryTree type="DecisionTree" boostWeight="1.7111308242242314e+00" itree="0">
      <Node pos="s" depth="0" NCoef="0" IVar="4" Cut="5.6285488605499268e-01" cType="1" res="-9.9000000000000000e+01" rms="0.0000000000000000e+00" purity="5.0000000000000000e-01" nType="0">
        <Node pos="l" depth="1" NCoef="0" IVar="4" Cut="1.4457104727625847e-02" cType="1" res="-9.9000000000000000e+01" rms="0.0000000000000000e+00" purity="6.6954863071441650e-01" nType="0">
          <Node pos="l" depth="2" NCoef="0" IVar="-1" Cut="1.6132916212081909e+00" cType="1" res="-9.9000000000000000e+01" rms="0.0000000000000000e+00" purity="9.5064717531204224e-01" nType="1"/>
          <Node pos="r" depth="2" NCoef="0" IVar="-1" Cut="4.9840062856674194e-02" cType="1" res="-9.9000000000000000e+01" rms="0.0000000000000000e+00" purity="2.6240820065140724e-02" nType="-1"/>
        </Node>
        <Node pos="r" depth="1" NCoef="0" IVar="-1" Cut="0.0000000000000000e+00" cType="1" res="-9.9000000000000000e+01" rms="0.0000000000000000e+00" purity="0.0000000000000000e+00" nType="-1"/>
      </Node>
    </BinaryTree>
    <BinaryTree type="DecisionTree" boostWeight="1.3082362886945202e+00" itree="1">
      <Node pos="s" depth="0" NCoef="0" IVar="4" Cut="5.6285488605499268e-01" cType="1" res="-9.9000000000000000e+01" rms="0.0000000000000000e+00" purity="4.6095001697540283e-01" nType="0">
        <Node pos="l" depth="1" NCoef="0" IVar="4" Cut="3.2736983150243759e-02" cType="1" res="-9.9000000000000000e+01" rms="0.0000000000000000e+00" purity="5.9208524227142334e-01" nType="0">
          <Node pos="l" depth="2" NCoef="0" IVar="3" Cut="4.3682858347892761e-01" cType="1" res="-9.9000000000000000e+01" rms="0.0000000000000000e+00" purity="7.6666581630706787e-01" nType="0">
            <Node pos="l" depth="3" NCoef="0" IVar="3" Cut="-4.7881445288658142e-01" cType="0" res="-9.9000000000000000e+01" rms="0.0000000000000000e+00" purity="8.2852548360824585e-01" nType="0">
              <Node pos="l" depth="4" NCoef="0" IVar="-1" Cut="0.0000000000000000e+00" cType="1" res="-9.9000000000000000e+01" rms="0.0000000000000000e+00" purity="9.0040755271911621e-01" nType="1"/>
              <Node pos="r" depth="4" NCoef="0" IVar="-1" Cut="0.0000000000000000e+00" cType="1" res="-9.9000000000000000e+01" rms="0.0000000000000000e+00" purity="9.2320159077644348e-02" nType="-1"/>
            </Node>
            <Node pos="r" depth="3" NCoef="0" IVar="-1" Cut="0.0000000000000000e+00" cType="1" res="-9.9000000000000000e+01" rms="0.0000000000000000e+00" purity="1.5857179462909698e-01" nType="-1"/>
          </Node>
          <Node pos="r" depth="2" NCoef="0" IVar="-1" Cut="8.4039308130741119e-02" cType="1" res="-9.9000000000000000e+01" rms="0.0000000000000000e+00" purity="3.3030670136213303e-02" nType="-1"/>
        </Node>
        <Node pos="r" depth="1" NCoef="0" IVar="-1" Cut="0.0000000000000000e+00" cType="1" res="-9.9000000000000000e+01" rms="0.0000000000000000e+00" purity="0.0000000000000000e+00" nType="-1"/>
      </Node>
    </BinaryTree>
    <BinaryTree type="DecisionTree" boostWeight="9.0154044077539630e-01" itree="2">
      <Node pos="s" depth="0" NCoef="0" IVar="1" Cut="5.1263745874166489e-02" cType="0" res="-9.9000000000000000e+01" rms="0.0000000000000000e+00" purity="4.3322750926017761e-01" nType="0">
        <Node pos="l" depth="1" NCoef="0" IVar="4" Cut="5.6285488605499268e-01" cType="1" res="-9.9000000000000000e+01" rms="0.0000000000000000e+00" purity="5.7754147052764893e-01" nType="0">
          <Node pos="l" depth="2" NCoef="0" IVar="2" Cut="1.6725026369094849e+00" cType="1" res="-9.9000000000000000e+01" rms="0.0000000000000000e+00" purity="6.6279256343841553e-01" nType="0">
            <Node pos="l" depth="3" NCoef="0" IVar="4" Cut="6.9295905530452728e-02" cType="1" res="-9.9000000000000000e+01" rms="0.0000000000000000e+00" purity="7.7048552036285400e-01" nType="0">
              <Node pos="l" depth="4" NCoef="0" IVar="-1" Cut="0.0000000000000000e+00" cType="1" res="-9.9000000000000000e+01" rms="0.0000000000000000e+00" purity="8.2443284988403320e-01" nType="1"/>
              <Node pos="r" depth="4" NCoef="0" IVar="-1" Cut="0.0000000000000000e+00" cType="1" res="-9.9000000000000000e+01" rms="0.0000000000000000e+00" purity="7.7995516359806061e-02" nType="-1"/>
            </Node>
            <Node pos="r" depth="3" NCoef="0" IVar="-1" Cut="2.2879333496093750e+00" cType="1" res="-9.9000000000000000e+01" rms="0.0000000000000000e+00" purity="2.5402757525444031e-01" nType="-1"/>
          </Node>
          <Node pos="r" depth="2" NCoef="0" IVar="-1" Cut="0.0000000000000000e+00" cType="1" res="-9.9000000000000000e+01" rms="0.0000000000000000e+00" purity="0.0000000000000000e+00" nType="-1"/>
        </Node>
        <Node pos="r" depth="1" NCoef="0" IVar="-1" Cut="-1.0234712623059750e-02" cType="0" res="-9.9000000000000000e+01" rms="0.0000000000000000e+00" purity="9.2064805328845978e-02" nType="-1"/>
      </Node>
    </BinaryTree>
    <BinaryTree type="DecisionTree" boostWeight="6.2414527912623852e-01" itree="3">
      <Node pos="s" depth="0" NCoef="0" IVar="4" Cut="5.6285488605499268e-01" cType="1" res="-9.9000000000000000e+01" rms="0.0000000000000000e+00" purity="4.3473604321479797e-01" nType="0">
        <Node pos="l" depth="1" NCoef="0" IVar="4" Cut="6.9296739995479584e-02" cType="1" res="-9.9000000000000000e+01" rms="0.0000000000000000e+00" purity="5.1448100805282593e-01" nType="0">
          <Node pos="l" depth="2" NCoef="0" IVar="4" Cut="5.6115440092980862e-03" cType="1" res="-9.9000000000000000e+01" rms="0.0000000000000000e+00" purity="5.8964467048645020e-01" nType="0">
            <Node pos="l" depth="3" NCoef="0" IVar="-1" Cut="0.0000000000000000e+00" cType="1" res="-9.9000000000000000e+01" rms="0.0000000000000000e+00" purity="7.0373791456222534e-01" nType="1"/>
            <Node pos="r" depth="3" NCoef="0" IVar="-1" Cut="8.8887554407119751e-01" cType="1" res="-9.9000000000000000e+01" rms="0.0000000000000000e+00" purity="3.0487176775932312e-01" nType="-1"/>
          </Node>
          <Node pos="r" depth="2" NCoef="0" IVar="-1" Cut="1.5204422473907471e+00" cType="0" res="-9.9000000000000000e+01" rms="0.0000000000000000e+00" purity="4.7586016356945038e-02" nType="-1"/>
        </Node>
        <Node pos="r" depth="1" NCoef="0" IVar="-1" Cut="0.0000000000000000e+00" cType="1" res="-9.9000000000000000e+01" rms="0.0000000000000000e+00" purity="0.0000000000000000e+00" nType="-1"/>
      </Node>
    </BinaryTree>
    <BinaryTree type="DecisionTree" boostWeight="5.8703566747953795e-01" itree="4">
      <Node pos="s" depth="0" NCoef="0" IVar="4" Cut="5.6285488605499268e-01" cType="1" res="-9.9000000000000000e+01" rms="0.0000000000000000e+00" purity="4.1447460651397705e-01" nType="0">
        <Node pos="l" depth="1" NCoef="0" IVar="4" Cut="1.2413637340068817e-01" cType="1" res="-9.9000000000000000e+01" rms="0.0000000000000000e+00" purity="4.7635117173194885e-01" nType="0">
          <Node pos="l" depth="2" NCoef="0" IVar="3" Cut="-2.7560049295425415e-01" cType="0" res="-9.9000000000000000e+01" rms="0.0000000000000000e+00" purity="5.2414983510971069e-01" nType="0">
            <Node pos="l" depth="3" NCoef="0" IVar="3" Cut="5.8244037628173828e-01" cType="1" res="-9.9000000000000000e+01" rms="0.0000000000000000e+00" purity="5.9587281942367554e-01" nType="0">
              <Node pos="l" depth="4" NCoef="0" IVar="2" Cut="1.1839544773101807e+00" cType="1" res="-9.9000000000000000e+01" rms="0.0000000000000000e+00" purity="6.5415585041046143e-01" nType="0">
                <Node pos="l" depth="5" NCoef="0" IVar="-1" Cut="0.0000000000000000e+00" cType="1" res="-9.9000000000000000e+01" rms="0.0000000000000000e+00" purity="7.4946826696395874e-01" nType="1"/>
                <Node pos="r" depth="5" NCoef="0" IVar="-1" Cut="0.0000000000000000e+00" cType="1" res="-9.9000000000000000e+01" rms="0.0000000000000000e+00" purity="4.9102023243904114e-01" nType="-1"/>
              </Node>
              <Node pos="r" depth="4" NCoef="0" IVar="-1" Cut="0.0000000000000000e+00" cType="1" res="-9.9000000000000000e+01" rms="0.0000000000000000e+00" purity="7.9953245818614960e-02" nType="-1"/>
            </Node>
            <Node pos="r" depth="3" NCoef="0" IVar="-1" Cut="-7.3322492837905884e-01" cType="0" res="-9.9000000000000000e+01" rms="0.0000000000000000e+00" purity="2.4241009354591370e-01" nType="-1"/>
          </Node>
          <Node pos="r" depth="2" NCoef="0" IVar="-1" Cut="0.0000000000000000e+00" cType="1" res="-9.9000000000000000e+01" rms="0.0000000000000000e+00" purity="0.0000000000000000e+00" nType="-1"/>
        </Node>
        <Node pos="r" depth="1" NCoef="0" IVar="-1" Cut="0.0000000000000000e+00" cType="1" res="-9.9000000000000000e+01" rms="0.0000000000000000e+00" purity="0.0000000000000000e+00" nType="-1"/>
      </Node>
    </BinaryTree>
    <BinaryTree type="DecisionTree" boostWeight="5.3582176122925096e-01" itree="5">
      <Node pos="s" depth="0" NCoef="0" IVar="4" Cut="5.6285488605499268e-01" cType="1" res="-9.9000000000000000e+01" rms="0.0000000000000000e+00" purity="4.4719570875167847e-01" nType="0">
        <Node pos="l" depth="1" NCoef="0" IVar="4" Cut="1.2413637340068817e-01" cType="1" res="-9.9000000000000000e+01" rms="0.0000000000000000e+00" purity="5.0206530094146729e-01" nType="0">
          <Node pos="l" depth="2" NCoef="0" IVar="2" Cut="2.6288566589355469e+00" cType="1" res="-9.9000000000000000e+01" rms="0.0000000000000000e+00" purity="5.4274338483810425e-01" nType="0">
            <Node pos="l" depth="3" NCoef="0" IVar="3" Cut="-7.1891587972640991e-01" cType="0" res="-9.9000000000000000e+01" rms="0.0000000000000000e+00" purity="5.6868773698806763e-01" nType="0">
              <Node pos="l" depth="4" NCoef="0" IVar="3" Cut="1.9633191823959351e-01" cType="1" res="-9.9000000000000000e+01" rms="0.0000000000000000e+00" purity="5.9336030483245850e-01" nType="0">
                <Node pos="l" depth="5" NCoef="0" IVar="-1" Cut="0.0000000000000000e+00" cType="1" res="-9.9000000000000000e+01" rms="0.0000000000000000e+00" purity="6.7695361375808716e-01" nType="1"/>
                <Node pos="r" depth="5" NCoef="0" IVar="-1" Cut="0.0000000000000000e+00" cType="1" res="-9.9000000000000000e+01" rms="0.0000000000000000e+00" purity="3.7295168638229370e-01" nType="-1"/>
              </Node>
              <Node pos="r" depth="4" NCoef="0" IVar="-1" Cut="0.0000000000000000e+00" cType="1" res="-9.9000000000000000e+01" rms="0.0000000000000000e+00" purity="3.6784701049327850e-02" nType="-1"/>
            </Node>
            <Node pos="r" depth="3" NCoef="0" IVar="-1" Cut="0.0000000000000000e+00" cType="1" res="-9.9000000000000000e+01" rms="0.0000000000000000e+00" purity="4.1445925831794739e-02" nType="-1"/>
          </Node>
          <Node pos="r" depth="2" NCoef="0" IVar="-1" Cut="0.0000000000000000e+00" cType="1" res="-9.9000000000000000e+01" rms="0.0000000000000000e+00" purity="0.0000000000000000e+00" nType="-1"/>
        </Node>
        <Node pos="r" depth="1" NCoef="0" IVar="-1" Cut="0.0000000000000000e+00" cType="1" res="-9.9000000000000000e+01" rms="0.0000000000000000e+00" purity="0.0000000000000000e+00" nType="-1"/>
      </Node>
    </BinaryTree>
    <BinaryTree type="DecisionTree" boostWeight="4.1790668955263571e-01" itree="6">
      <Node pos="s" depth="0" NCoef="0" IVar="4" Cut="5.6285488605499268e-01" cType="1" res="-9.9000000000000000e+01" rms="0.0000000000000000e+00" purity="4.2658236622810364e-01" nType="0">
        <Node pos="l" depth="1" NCoef="0" IVar="4" Cut="1.2413637340068817e-01" cType="1" res="-9.9000000000000000e+01" rms="0.0000000000000000e+00" purity="4.7009032964706421e-01" nType="0">
          <Node pos="l" depth="2" NCoef="0" IVar="3" Cut="-2.7560049295425415e-01" cType="0" res="-9.9000000000000000e+01" rms="0.0000000000000000e+00" purity="5.0132352113723755e-01" nType="0">
            <Node pos="l" depth="3" NCoef="0" IVar="3" Cut="7.9694741964340210e-01" cType="1" res="-9.9000000000000000e+01" rms="0.0000000000000000e+00" purity="5.5306947231292725e-01" nType="0">
              <Node pos="l" depth="4" NCoef="0" IVar="1" Cut="4.8966133594512939e-01" cType="0" res="-9.9000000000000000e+01" rms="0.0000000000000000e+00" purity="5.7735401391983032e-01" nType="0">
                <Node pos="l" depth="5" NCoef="0" IVar="-1" Cut="0.0000000000000000e+00" cType="1" res="-9.9000000000000000e+01" rms="0.0000000000000000e+00" purity="6.3798165321350098e-01" nType="1"/>
                <Node pos="r" depth="5" NCoef="0" IVar="-1" Cut="0.0000000000000000e+00" cType="1" res="-9.9000000000000000e+01" rms="0.0000000000000000e+00" purity="4.4093364477157593e-01" nType="-1"/>
              </Node>
              <Node pos="r" depth="4" NCoef="0" IVar="-1" Cut="0.0000000000000000e+00" cType="1" res="-9.9000000000000000e+01" rms="0.0000000000000000e+00" purity="2.5105321779847145e-02" nType="-1"/>
            </Node>
            <Node pos="r" depth="3" NCoef="0" IVar="-1" Cut="-7.3322492837905884e-01" cType="0" res="-9.9000000000000000e+01" rms="0.0000000000000000e+00" purity="2.9576897621154785e-01" nType="-1"/>
          </Node>
          <Node pos="r" depth="2" NCoef="0" IVar="-1" Cut="0.0000000000000000e+00" cType="1" res="-9.9000000000000000e+01" rms="0.0000000000000000e+00" purity="0.0000000000000000e+00" nType="-1"/>
        </Node>
        <Node pos="r" depth="1" NCoef="0" IVar="-1" Cut="0.0000000000000000e+00" cType="1" res="-9.9000000000000000e+01" rms="0.0000000000000000e+00" purity="0.0000000000000000e+00" nType="-1"/>
      </Node>
    </BinaryTree>
    <BinaryTree type="DecisionTree" boostWeight="2.9533495476119526e-01" itree="7">
      <Node pos="s" depth="0" NCoef="0" IVar="4" Cut="5.6285488605499268e-01" cType="1" res="-9.9000000000000000e+01" rms="0.0000000000000000e+00" purity="4.3130311369895935e-01" nType="0">
        <Node pos="l" depth="1" NCoef="0" IVar="4" Cut="1.2413637340068817e-01" cType="1" res="-9.9000000000000000e+01" rms="0.0000000000000000e+00" purity="4.6880829334259033e-01" nType="0">
          <Node pos="l" depth="2" NCoef="0" IVar="2" Cut="2.3398761749267578e+00" cType="1" res="-9.9000000000000000e+01" rms="0.0000000000000000e+00" purity="4.9510735273361206e-01" nType="0">
            <Node pos="l" depth="3" NCoef="0" IVar="3" Cut="-7.1891587972640991e-01" cType="0" res="-9.9000000000000000e+01" rms="0.0000000000000000e+00" purity="5.1921486854553223e-01" nType="0">
              <Node pos="l" depth="4" NCoef="0" IVar="3" Cut="6.5394663810729980e-01" cType="1" res="-9.9000000000000000e+01" rms="0.0000000000000000e+00" purity="5.3303331136703491e-01" nType="0">
                <Node pos="l" depth="5" NCoef="0" IVar="-1" Cut="0.0000000000000000e+00" cType="1" res="-9.9000000000000000e+01" rms="0.0000000000000000e+00" purity="5.4975515604019165e-01" nType="1"/>
                <Node pos="r" depth="5" NCoef="0" IVar="-1" Cut="0.0000000000000000e+00" cType="1" res="-9.9000000000000000e+01" rms="0.0000000000000000e+00" purity="1.7602260410785675e-01" nType="-1"/>
              </Node>
              <Node pos="r" depth="4" NCoef="0" IVar="-1" Cut="0.0000000000000000e+00" cType="1" res="-9.9000000000000000e+01" rms="0.0000000000000000e+00" purity="9.4720602035522461e-02" nType="-1"/>
            </Node>
            <Node pos="r" depth="3" NCoef="0" IVar="-1" Cut="0.0000000000000000e+00" cType="1" res="-9.9000000000000000e+01" rms="0.0000000000000000e+00" purity="1.5954054892063141e-01" nType="-1"/>
          </Node>
          <Node pos="r" depth="2" NCoef="0" IVar="-1" Cut="0.0000000000000000e+00" cType="1" res="-9.9000000000000000e+01" rms="0.0000000000000000e+00" purity="0.0000000000000000e+00" nType="-1"/>
        </Node>
        <Node pos="r" depth="1" NCoef="0" IVar="-1" Cut="0.0000000000000000e+00" cType="1" res="-9.9000000000000000e+01" rms="0.0000000000000000e+00" purity="0.0000000000000000e+00" nType="-1"/>
      </Node>
    </BinaryTree>
    <BinaryTree type="DecisionTree" boostWeight="2.2421648240228240e-01" itree="8">
      <Node pos="s" depth="0" NCoef="0" IVar="-1" Cut="5.6285488605499268e-01" cType="1" res="-9.9000000000000000e+01" rms="0.0000000000000000e+00" purity="3.8973340392112732e-01" nType="-1"/>
    </BinaryTree>
    <BinaryTree type="DecisionTree" boostWeight="2.5384554597443315e-01" itree="9">
      <Node pos="s" depth="0" NCoef="0" IVar="4" Cut="5.6285488605499268e-01" cType="1" res="-9.9000000000000000e+01" rms="0.0000000000000000e+00" purity="4.4417953491210938e-01" nType="0">
        <Node pos="l" depth="1" NCoef="0" IVar="4" Cut="1.2413637340068817e-01" cType="1" res="-9.9000000000000000e+01" rms="0.0000000000000000e+00" purity="4.7501423954963684e-01" nType="0">
          <Node pos="l" depth="2" NCoef="0" IVar="2" Cut="2.6288566589355469e+00" cType="1" res="-9.9000000000000000e+01" rms="0.0000000000000000e+00" purity="4.9604901671409607e-01" nType="0">
            <Node pos="l" depth="3" NCoef="0" IVar="4" Cut="4.4325850903987885e-03" cType="1" res="-9.9000000000000000e+01" rms="0.0000000000000000e+00" purity="5.0926095247268677e-01" nType="0">
              <Node pos="l" depth="4" NCoef="0" IVar="-1" Cut="0.0000000000000000e+00" cType="1" res="-9.9000000000000000e+01" rms="0.0000000000000000e+00" purity="5.6041878461837769e-01" nType="1"/>
              <Node pos="r" depth="4" NCoef="0" IVar="-1" Cut="1.6771489381790161e-01" cType="1" res="-9.9000000000000000e+01" rms="0.0000000000000000e+00" purity="4.1252836585044861e-01" nType="-1"/>
            </Node>
            <Node pos="r" depth="3" NCoef="0" IVar="-1" Cut="0.0000000000000000e+00" cType="1" res="-9.9000000000000000e+01" rms="0.0000000000000000e+00" purity="1.0770910233259201e-01" nType="-1"/>
          </Node>
          <Node pos="r" depth="2" NCoef="0" IVar="-1" Cut="0.0000000000000000e+00" cType="1" res="-9.9000000000000000e+01" rms="0.0000000000000000e+00" purity="0.0000000000000000e+00" nType="-1"/>
        </Node>
        <Node pos="r" depth="1" NCoef="0" IVar="-1" Cut="0.0000000000000000e+00" cType="1" res="-9.9000000000000000e+01" rms="0.0000000000000000e+00" purity="0.0000000000000000e+00" nType="-1"/>
      </Node>
    </BinaryTree>
    <BinaryTree type="DecisionTree" boostWeight="2.2411445960408322e-01" itree="10">
      <Node pos="s" depth="0" NCoef="0" IVar="4" Cut="5.6285488605499268e-01" cType="1" res="-9.9000000000000000e+01" rms="0.0000000000000000e+00" purity="4.3371477723121643e-01" nType="0">
        <Node pos="l" depth="1" NCoef="0" IVar="4" Cut="1.2413637340068817e-01" cType="1" res="-9.9000000000000000e+01" rms="0.0000000000000000e+00" purity="4.6069073677062988e-01" nType="0">
          <Node pos="l" depth="2" NCoef="0" IVar="3" Cut="-7.1891587972640991e-01" cType="0" res="-9.9000000000000000e+01" rms="0.0000000000000000e+00" purity="4.7888505458831787e-01" nType="0">
            <Node pos="l" depth="3" NCoef="0" IVar="3" Cut="6.5394663810729980e-01" cType="1" res="-9.9000000000000000e+01" rms="0.0000000000000000e+00" purity="4.8948544263839722e-01" nType="0">
              <Node pos="l" depth="4" NCoef="0" IVar="3" Cut="-1.4320151507854462e-01" cType="0" res="-9.9000000000000000e+01" rms="0.0000000000000000e+00" purity="5.0180643796920776e-01" nType="0">
                <Node pos="l" depth="5" NCoef="0" IVar="-1" Cut="0.0000000000000000e+00" cType="1" res="-9.9000000000000000e+01" rms="0.0000000000000000e+00" purity="5.3787064552307129e-01" nType="1"/>
                <Node pos="r" depth="5" NCoef="0" IVar="-1" Cut="0.0000000000000000e+00" cType="1" res="-9.9000000000000000e+01" rms="0.0000000000000000e+00" purity="4.2230245471000671e-01" nType="-1"/>
              </Node>
              <Node pos="r" depth="4" NCoef="0" IVar="-1" Cut="0.0000000000000000e+00" cType="1" res="-9.9000000000000000e+01" rms="0.0000000000000000e+00" purity="2.0725245773792267e-01" nType="-1"/>
            </Node>
            <Node pos="r" depth="3" NCoef="0" IVar="-1" Cut="0.0000000000000000e+00" cType="1" res="-9.9000000000000000e+01" rms="0.0000000000000000e+00" purity="1.1614266782999039e-01" nType="-1"/>
          </Node>
          <Node pos="r" depth="2" NCoef="0" IVar="-1" Cut="0.0000000000000000e+00" cType="1" res="-9.9000000000000000e+01" rms="0.0000000000000000e+00" purity="0.0000000000000000e+00" nType="-1"/>
        </Node>
        <Node pos="r" depth="1" NCoef="0" IVar="-1" Cut="0.0000000000000000e+00" cType="1" res="-9.9000000000000000e+01" rms="0.0000000000000000e+00" purity="0.0000000000000000e+00" nType="-1"/>
      </Node>
    </BinaryTree>
    <BinaryTree type="DecisionTree" boostWeight="2.1780401805144561e-01" itree="11">
      <Node pos="s" depth="0" NCoef="0" IVar="4" Cut="5.6285488605499268e-01" cType="1" res="-9.9000000000000000e+01" rms="0.0000000000000000e+00" purity="4.2288634181022644e-01" nType="0">
        <Node pos="l" depth="1" NCoef="0" IVar="4" Cut="1.2413637340068817e-01" cType="1" res="-9.9000000000000000e+01" rms="0.0000000000000000e+00" purity="4.4671085476875305e-01" nType="0">
          <Node pos="l" depth="2" NCoef="0" IVar="2" Cut="2.6288566589355469e+00" cType="1" res="-9.9000000000000000e+01" rms="0.0000000000000000e+00" purity="4.6263173222541809e-01" nType="0">
            <Node pos="l" depth="3" NCoef="0" IVar="0" Cut="2.4371328353881836e+00" cType="0" res="-9.9000000000000000e+01" rms="0.0000000000000000e+00" purity="4.7316160798072815e-01" nType="0">
              <Node pos="l" depth="4" NCoef="0" IVar="-1" Cut="0.0000000000000000e+00" cType="1" res="-9.9000000000000000e+01" rms="0.0000000000000000e+00" purity="5.5612176656723022e-01" nType="1"/>
              <Node pos="r" depth="4" NCoef="0" IVar="2" Cut="6.8986517190933228e-01" cType="1" res="-9.9000000000000000e+01" rms="0.0000000000000000e+00" purity="4.3935367465019226e-01" nType="0">
                <Node pos="l" depth="5" NCoef="0" IVar="-1" Cut="0.0000000000000000e+00" cType="1" res="-9.9000000000000000e+01" rms="0.0000000000000000e+00" purity="5.0282317399978638e-01" nType="1"/>
                <Node pos="r" depth="5" NCoef="0" IVar="-1" Cut="0.0000000000000000e+00" cType="1" res="-9.9000000000000000e+01" rms="0.0000000000000000e+00" purity="4.0299257636070251e-01" nType="-1"/>
              </Node>
            </Node>
            <Node pos="r" depth="3" NCoef="0" IVar="-1" Cut="0.0000000000000000e+00" cType="1" res="-9.9000000000000000e+01" rms="0.0000000000000000e+00" purity="1.2663266062736511e-01" nType="-1"/>
          </Node>
          <Node pos="r" depth="2" NCoef="0" IVar="-1" Cut="0.0000000000000000e+00" cType="1" res="-9.9000000000000000e+01" rms="0.0000000000000000e+00" purity="0.0000000000000000e+00" nType="-1"/>
        </Node>
        <Node pos="r" depth="1" NCoef="0" IVar="-1" Cut="0.0000000000000000e+00" cType="1" res="-9.9000000000000000e+01" rms="0.0000000000000000e+00" purity="0.0000000000000000e+00" nType="-1"/>
      </Node>
    </BinaryTree>
    <BinaryTree type="DecisionTree" boostWeight="2.3938345303329703e-01" itree="12">
      <Node pos="s" depth="0" NCoef="0" IVar="4" Cut="5.6285488605499268e-01" cType="1" res="-9.9000000000000000e+01" rms="0.0000000000000000e+00" purity="4.2260837554931641e-01" nType="0">
        <Node pos="l" depth="1" NCoef="0" IVar="4" Cut="1.2413637340068817e-01" cType="1" res="-9.9000000000000000e+01" rms="0.0000000000000000e+00" purity="4.4423371553421021e-01" nType="0">
          <Node pos="l" depth="2" NCoef="0" IVar="2" Cut="2.6288566589355469e+00" cType="1" res="-9.9000000000000000e+01" rms="0.0000000000000000e+00" purity="4.5856750011444092e-01" nType="0">
            <Node pos="l" depth="3" NCoef="0" IVar="2" Cut="1.6593675613403320e+00" cType="0" res="-9.9000000000000000e+01" rms="0.0000000000000000e+00" purity="4.6749323606491089e-01" nType="0">
              <Node pos="l" depth="4" NCoef="0" IVar="2" Cut="2.0659353733062744e+00" cType="1" res="-9.9000000000000000e+01" rms="0.0000000000000000e+00" purity="5.7424050569534302e-01" nType="0">
                <Node pos="l" depth="5" NCoef="0" IVar="-1" Cut="0.0000000000000000e+00" cType="1" res="-9.9000000000000000e+01" rms="0.0000000000000000e+00" purity="6.4451760053634644e-01" nType="1"/>
                <Node pos="r" depth="5" NCoef="0" IVar="-1" Cut="0.0000000000000000e+00" cType="1" res="-9.9000000000000000e+01" rms="0.0000000000000000e+00" purity="4.5517128705978394e-01" nType="-1"/>
              </Node>
              <Node pos="r" depth="4" NCoef="0" IVar="4" Cut="1.6815282404422760e-02" cType="0" res="-9.9000000000000000e+01" rms="0.0000000000000000e+00" purity="4.4204485416412354e-01" nType="0">
                <Node pos="l" depth="5" NCoef="0" IVar="-1" Cut="0.0000000000000000e+00" cType="1" res="-9.9000000000000000e+01" rms="0.0000000000000000e+00" purity="5.5968087911605835e-01" nType="1"/>
                <Node pos="r" depth="5" NCoef="0" IVar="-1" Cut="0.0000000000000000e+00" cType="1" res="-9.9000000000000000e+01" rms="0.0000000000000000e+00" purity="4.2880046367645264e-01" nType="-1"/>
              </Node>
            </Node>
            <Node pos="r" depth="3" NCoef="0" IVar="-1" Cut="0.0000000000000000e+00" cType="1" res="-9.9000000000000000e+01" rms="0.0000000000000000e+00" purity="1.5274111926555634e-01" nType="-1"/>
          </Node>
          <Node pos="r" depth="2" NCoef="0" IVar="-1" Cut="0.0000000000000000e+00" cType="1" res="-9.9000000000000000e+01" rms="0.0000000000000000e+00" purity="0.0000000000000000e+00" nType="-1"/>
        </Node>
        <Node pos="r" depth="1" NCoef="0" IVar="-1" Cut="0.0000000000000000e+00" cType="1" res="-9.9000000000000000e+01" rms="0.0000000000000000e+00" purity="0.0000000000000000e+00" nType="-1"/>
      </Node>
    </BinaryTree>
    <BinaryTree type="DecisionTree" boostWeight="1.4903368722791083e-01" itree="13">
      <Node pos="s" depth="0" NCoef="0" IVar="4" Cut="5.6285488605499268e-01" cType="1" res="-9.9000000000000000e+01" rms="0.0000000000000000e+00" purity="4.5940479636192322e-01" nType="0">
        <Node pos="l" depth="1" NCoef="0" IVar="4" Cut="1.2413637340068817e-01" cType="1" res="-9.9000000000000000e+01" rms="0.0000000000000000e+00" purity="4.8060715198516846e-01" nType="0">
          <Node pos="l" depth="2" NCoef="0" IVar="4" Cut="8.5602635517716408e-03" cType="1" res="-9.9000000000000000e+01" rms="0.0000000000000000e+00" purity="4.9454927444458008e-01" nType="0">
            <Node pos="l" depth="3" NCoef="0" IVar="-1" Cut="0.0000000000000000e+00" cType="1" res="-9.9000000000000000e+01" rms="0.0000000000000000e+00" purity="5.1577967405319214e-01" nType="1"/>
            <Node pos="r" depth="3" NCoef="0" IVar="3" Cut="1.6771489381790161e-01" cType="1" res="-9.9000000000000000e+01" rms="0.0000000000000000e+00" purity="4.0497052669525146e-01" nType="0">
              <Node pos="l" depth="4" NCoef="0" IVar="3" Cut="-3.1851810216903687e-01" cType="0" res="-9.9000000000000000e+01" rms="0.0000000000000000e+00" purity="4.7149020433425903e-01" nType="0">
                <Node pos="l" depth="5" NCoef="0" IVar="-1" Cut="0.0000000000000000e+00" cType="1" res="-9.9000000000000000e+01" rms="0.0000000000000000e+00" purity="5.4503297805786133e-01" nType="1"/>
                <Node pos="r" depth="5" NCoef="0" IVar="-1" Cut="0.0000000000000000e+00" cType="1" res="-9.9000000000000000e+01" rms="0.0000000000000000e+00" purity="1.7682787775993347e-01" nType="-1"/>
              </Node>
              <Node pos="r" depth="4" NCoef="0" IVar="-1" Cut="0.0000000000000000e+00" cType="1" res="-9.9000000000000000e+01" rms="0.0000000000000000e+00" purity="2.0085173845291138e-01" nType="-1"/>
            </Node>
          </Node>
          <Node pos="r" depth="2" NCoef="0" IVar="-1" Cut="0.0000000000000000e+00" cType="1" res="-9.9000000000000000e+01" rms="0.0000000000000000e+00" purity="0.0000000000000000e+00" nType="-1"/>
        </Node>
        <Node pos="r" depth="1" NCoef="0" IVar="-1" Cut="0.0000000000000000e+00" cType="1" res="-9.9000000000000000e+01" rms="0.0000000000000000e+00" purity="0.0000000000000000e+00" nType="-1"/>
      </Node>
    </BinaryTree>
    <BinaryTree type="DecisionTree" boostWeight="1.3684687344169241e-01" itree="14">
      <Node pos="s" depth="0" NCoef="0" IVar="-1" Cut="5.6285488605499268e-01" cType="1" res="-9.9000000000000000e+01" rms="0.0000000000000000e+00" purity="4.3200048804283142e-01" nType="-1"/>
    </BinaryTree>
    <BinaryTree type="DecisionTree" boostWeight="1.5552042205724634e-01" itree="15">
      <Node pos="s" depth="0" NCoef="0" IVar="4" Cut="5.6285488605499268e-01" cType="1" res="-9.9000000000000000e+01" rms="0.0000000000000000e+00" purity="4.6584156155586243e-01" nType="0">
        <Node pos="l" depth="1" NCoef="0" IVar="4" Cut="6.9296739995479584e-02" cType="1" res="-9.9000000000000000e+01" rms="0.0000000000000000e+00" purity="4.8466032743453979e-01" nType="0">
          <Node pos="l" depth="2" NCoef="0" IVar="2" Cut="2.3322529792785645e+00" cType="1" res="-9.9000000000000000e+01" rms="0.0000000000000000e+00" purity="5.0033706426620483e-01" nType="0">
            <Node pos="l" depth="3" NCoef="0" IVar="2" Cut="1.6338344812393188e+00" cType="0" res="-9.9000000000000000e+01" rms="0.0000000000000000e+00" purity="5.0928825139999390e-01" nType="0">
              <Node pos="l" depth="4" NCoef="0" IVar="-1" Cut="0.0000000000000000e+00" cType="1" res="-9.9000000000000000e+01" rms="0.0000000000000000e+00" purity="5.7990509271621704e-01" nType="1"/>
              <Node pos="r" depth="4" NCoef="0" IVar="1" Cut="3.2312959432601929e-01" cType="1" res="-9.9000000000000000e+01" rms="0.0000000000000000e+00" purity="4.9394235014915466e-01" nType="0">
                <Node pos="l" depth="5" NCoef="0" IVar="-1" Cut="0.0000000000000000e+00" cType="1" res="-9.9000000000000000e+01" rms="0.0000000000000000e+00" purity="5.4593938589096069e-01" nType="1"/>
                <Node pos="r" depth="5" NCoef="0" IVar="-1" Cut="0.0000000000000000e+00" cType="1" res="-9.9000000000000000e+01" rms="0.0000000000000000e+00" purity="4.7437113523483276e-01" nType="-1"/>
              </Node>
            </Node>
            <Node pos="r" depth="3" NCoef="0" IVar="-1" Cut="0.0000000000000000e+00" cType="1" res="-9.9000000000000000e+01" rms="0.0000000000000000e+00" purity="3.3481770753860474e-01" nType="-1"/>
          </Node>
          <Node pos="r" depth="2" NCoef="0" IVar="-1" Cut="0.0000000000000000e+00" cType="1" res="-9.9000000000000000e+01" rms="0.0000000000000000e+00" purity="1.2129933387041092e-01" nType="-1"/>
        </Node>
        <Node pos="r" depth="1" NCoef="0" IVar="-1" Cut="0.0000000000000000e+00" cType="1" res="-9.9000000000000000e+01" rms="0.0000000000000000e+00" purity="0.0000000000000000e+00" nType="-1"/>
      </Node>
    </BinaryTree>
    <BinaryTree type="DecisionTree" boostWeight="1.4785676247978308e-01" itree="16">
      <Node pos="s" depth="0" NCoef="0" IVar="4" Cut="5.6285488605499268e-01" cType="1" res="-9.9000000000000000e+01" rms="0.0000000000000000e+00" purity="4.7701904177665710e-01" nType="0">
        <Node pos="l" depth="1" NCoef="0" IVar="4" Cut="6.9296739995479584e-02" cType="1" res="-9.9000000000000000e+01" rms="0.0000000000000000e+00" purity="4.9496117234230042e-01" nType="0">
          <Node pos="l" depth="2" NCoef="0" IVar="1" Cut="1.5353171825408936e+00" cType="0" res="-9.9000000000000000e+01" rms="0.0000000000000000e+00" purity="5.0952571630477905e-01" nType="0">
            <Node pos="l" depth="3" NCoef="0" IVar="-1" Cut="0.0000000000000000e+00" cType="1" res="-9.9000000000000000e+01" rms="0.0000000000000000e+00" purity="5.4690641164779663e-01" nType="1"/>
            <Node pos="r" depth="3" NCoef="0" IVar="2" Cut="2.3322529792785645e+00" cType="1" res="-9.9000000000000000e+01" rms="0.0000000000000000e+00" purity="4.8037251830101013e-01" nType="0">
              <Node pos="l" depth="4" NCoef="0" IVar="2" Cut="9.3542712926864624e-01" cType="1" res="-9.9000000000000000e+01" rms="0.0000000000000000e+00" purity="4.9147754907608032e-01" nType="0">
                <Node pos="l" depth="5" NCoef="0" IVar="-1" Cut="0.0000000000000000e+00" cType="1" res="-9.9000000000000000e+01" rms="0.0000000000000000e+00" purity="5.2336722612380981e-01" nType="1"/>
                <Node pos="r" depth="5" NCoef="0" IVar="-1" Cut="0.0000000000000000e+00" cType="1" res="-9.9000000000000000e+01" rms="0.0000000000000000e+00" purity="4.5452827215194702e-01" nType="-1"/>
              </Node>
              <Node pos="r" depth="4" NCoef="0" IVar="-1" Cut="0.0000000000000000e+00" cType="1" res="-9.9000000000000000e+01" rms="0.0000000000000000e+00" purity="2.8285738825798035e-01" nType="-1"/>
            </Node>
          </Node>
          <Node pos="r" depth="2" NCoef="0" IVar="-1" Cut="0.0000000000000000e+00" cType="1" res="-9.9000000000000000e+01" rms="0.0000000000000000e+00" purity="1.3887533545494080e-01" nType="-1"/>
        </Node>
        <Node pos="r" depth="1" NCoef="0" IVar="-1" Cut="0.0000000000000000e+00" cType="1" res="-9.9000000000000000e+01" rms="0.0000000000000000e+00" purity="0.0000000000000000e+00" nType="-1"/>
      </Node>
    </BinaryTree>
    <BinaryTree type="DecisionTree" boostWeight="1.2682433851140548e-01" itree="17">
      <Node pos="s" depth="0" NCoef="0" IVar="4" Cut="5.6285488605499268e-01" cType="1" res="-9.9000000000000000e+01" rms="0.0000000000000000e+00" purity="4.6408197283744812e-01" nType="0">
        <Node pos="l" depth="1" NCoef="0" IVar="4" Cut="6.9296739995479584e-02" cType="1" res="-9.9000000000000000e+01" rms="0.0000000000000000e+00" purity="4.8038738965988159e-01" nType="0">
          <Node pos="l" depth="2" NCoef="0" IVar="3" Cut="6.1103028059005737e-01" cType="1" res="-9.9000000000000000e+01" rms="0.0000000000000000e+00" purity="4.9297291040420532e-01" nType="0">
            <Node pos="l" depth="3" NCoef="0" IVar="3" Cut="-6.7604285478591919e-01" cType="0" res="-9.9000000000000000e+01" rms="0.0000000000000000e+00" purity="5.0017565488815308e-01" nType="0">
              <Node pos="l" depth="4" NCoef="0" IVar="2" Cut="1.1739115715026855e+00" cType="0" res="-9.9000000000000000e+01" rms="0.0000000000000000e+00" purity="5.0990039110183716e-01" nType="0">
                <Node pos="l" depth="5" NCoef="0" IVar="-1" Cut="0.0000000000000000e+00" cType="1" res="-9.9000000000000000e+01" rms="0.0000000000000000e+00" purity="5.4076021909713745e-01" nType="1"/>
                <Node pos="r" depth="5" NCoef="0" IVar="-1" Cut="0.0000000000000000e+00" cType="1" res="-9.9000000000000000e+01" rms="0.0000000000000000e+00" purity="4.9044641852378845e-01" nType="-1"/>
              </Node>
              <Node pos="r" depth="4" NCoef="0" IVar="-1" Cut="0.0000000000000000e+00" cType="1" res="-9.9000000000000000e+01" rms="0.0000000000000000e+00" purity="1.8604296445846558e-01" nType="-1"/>
            </Node>
            <Node pos="r" depth="3" NCoef="0" IVar="-1" Cut="0.0000000000000000e+00" cType="1" res="-9.9000000000000000e+01" rms="0.0000000000000000e+00" purity="3.3912459015846252e-01" nType="-1"/>
          </Node>
          <Node pos="r" depth="2" NCoef="0" IVar="-1" Cut="0.0000000000000000e+00" cType="1" res="-9.9000000000000000e+01" rms="0.0000000000000000e+00" purity="1.5751889348030090e-01" nType="-1"/>
        </Node>
        <Node pos="r" depth="1" NCoef="0" IVar="-1" Cut="0.0000000000000000e+00" cType="1" res="-9.9000000000000000e+01" rms="0.0000000000000000e+00" purity="0.0000000000000000e+00" nType="-1"/>
      </Node>
    </BinaryTree>
    <BinaryTree type="DecisionTree" boostWeight="1.2677514651852426e-01" itree="18">
      <Node pos="s" depth="0" NCoef="0" IVar="4" Cut="5.6285488605499268e-01" cType="1" res="-9.9000000000000000e+01" rms="0.0000000000000000e+00" purity="4.7444570064544678e-01" nType="0">
        <Node pos="l" depth="1" NCoef="0" IVar="4" Cut="6.9296739995479584e-02" cType="1" res="-9.9000000000000000e+01" rms="0.0000000000000000e+00" purity="4.9015453457832336e-01" nType="0">
          <Node pos="l" depth="2" NCoef="0" IVar="2" Cut="2.3322529792785645e+00" cType="1" res="-9.9000000000000000e+01" rms="0.0000000000000000e+00" purity="5.0195729732513428e-01" nType="0">
            <Node pos="l" depth="3" NCoef="0" IVar="3" Cut="1.6771489381790161e-01" cType="1" res="-9.9000000000000000e+01" rms="0.0000000000000000e+00" purity="5.0991201400756836e-01" nType="0">
              <Node pos="l" depth="4" NCoef="0" IVar="-1" Cut="1.5387057326734066e-02" cType="0" res="-9.9000000000000000e+01" rms="0.0000000000000000e+00" purity="5.3000432252883911e-01" nType="1"/>
              <Node pos="r" depth="4" NCoef="0" IVar="-1" Cut="0.0000000000000000e+00" cType="1" res="-9.9000000000000000e+01" rms="0.0000000000000000e+00" purity="4.6190413832664490e-01" nType="-1"/>
            </Node>
            <Node pos="r" depth="3" NCoef="0" IVar="-1" Cut="0.0000000000000000e+00" cType="1" res="-9.9000000000000000e+01" rms="0.0000000000000000e+00" purity="3.5081952810287476e-01" nType="-1"/>
          </Node>
          <Node pos="r" depth="2" NCoef="0" IVar="-1" Cut="0.0000000000000000e+00" cType="1" res="-9.9000000000000000e+01" rms="0.0000000000000000e+00" purity="1.7508895695209503e-01" nType="-1"/>
        </Node>
        <Node pos="r" depth="1" NCoef="0" IVar="-1" Cut="0.0000000000000000e+00" cType="1" res="-9.9000000000000000e+01" rms="0.0000000000000000e+00" purity="0.0000000000000000e+00" nType="-1"/>
      </Node>
    </BinaryTree>
    <BinaryTree type="DecisionTree" boostWeight="9.7674124894525260e-02" itree="19">
      <Node pos="s" depth="0" NCoef="0" IVar="4" Cut="5.6285488605499268e-01" cType="1" res="-9.9000000000000000e+01" rms="0.0000000000000000e+00" purity="4.6627375483512878e-01" nType="0">
        <Node pos="l" depth="1" NCoef="0" IVar="3" Cut="-6.7751115560531616e-01" cType="0" res="-9.9000000000000000e+01" rms="0.0000000000000000e+00" purity="4.8082426190376282e-01" nType="0">
          <Node pos="l" depth="2" NCoef="0" IVar="2" Cut="2.5793368816375732e+00" cType="1" res="-9.9000000000000000e+01" rms="0.0000000000000000e+00" purity="4.9187049269676208e-01" nType="0">
            <Node pos="l" depth="3" NCoef="0" IVar="3" Cut="6.8734246492385864e-01" cType="1" res="-9.9000000000000000e+01" rms="0.0000000000000000e+00" purity="5.0001740455627441e-01" nType="0">
              <Node pos="l" depth="4" NCoef="0" IVar="3" Cut="4.2317777872085571e-01" cType="0" res="-9.9000000000000000e+01" rms="0.0000000000000000e+00" purity="5.0795596837997437e-01" nType="0">
                <Node pos="l" depth="5" NCoef="0" IVar="-1" Cut="0.0000000000000000e+00" cType="1" res="-9.9000000000000000e+01" rms="0.0000000000000000e+00" purity="6.0478049516677856e-01" nType="1"/>
                <Node pos="r" depth="5" NCoef="0" IVar="-1" Cut="0.0000000000000000e+00" cType="1" res="-9.9000000000000000e+01" rms="0.0000000000000000e+00" purity="4.9941983819007874e-01" nType="-1"/>
              </Node>
              <Node pos="r" depth="4" NCoef="0" IVar="-1" Cut="0.0000000000000000e+00" cType="1" res="-9.9000000000000000e+01" rms="0.0000000000000000e+00" purity="2.7093163132667542e-01" nType="-1"/>
            </Node>
            <Node pos="r" depth="3" NCoef="0" IVar="-1" Cut="0.0000000000000000e+00" cType="1" res="-9.9000000000000000e+01" rms="0.0000000000000000e+00" purity="2.0977018773555756e-01" nType="-1"/>
          </Node>
          <Node pos="r" depth="2" NCoef="0" IVar="-1" Cut="0.0000000000000000e+00" cType="1" res="-9.9000000000000000e+01" rms="0.0000000000000000e+00" purity="1.5699949860572815e-01" nType="-1"/>
        </Node>
        <Node pos="r" depth="1" NCoef="0" IVar="-1" Cut="0.0000000000000000e+00" cType="1" res="-9.9000000000000000e+01" rms="0.0000000000000000e+00" purity="0.0000000000000000e+00" nType="-1"/>
      </Node>
    </BinaryTree>
    <BinaryTree type="DecisionTree" boostWeight="1.4077886495765063e-01" itree="20">
      <Node pos="s" depth="0" NCoef="0" IVar="4" Cut="5.6285488605499268e-01" cType="1" res="-9.9000000000000000e+01" rms="0.0000000000000000e+00" purity="4.8712906241416931e-01" nType="0">
        <Node pos="l" depth="1" NCoef="0" IVar="3" Cut="-6.7751115560531616e-01" cType="0" res="-9.9000000000000000e+01" rms="0.0000000000000000e+00" purity="5.0163751840591431e-01" nType="0">
          <Node pos="l" depth="2" NCoef="0" IVar="2" Cut="2.5793368816375732e+00" cType="1" res="-9.9000000000000000e+01" rms="0.0000000000000000e+00" purity="5.1258534193038940e-01" nType="0">
            <Node pos="l" depth="3" NCoef="0" IVar="3" Cut="6.8734246492385864e-01" cType="1" res="-9.9000000000000000e+01" rms="0.0000000000000000e+00" purity="5.2062845230102539e-01" nType="0">
              <Node pos="l" depth="4" NCoef="0" IVar="4" Cut="5.3762879222631454e-02" cType="1" res="-9.9000000000000000e+01" rms="0.0000000000000000e+00" purity="5.2842658758163452e-01" nType="0">
                <Node pos="l" depth="5" NCoef="0" IVar="-1" Cut="0.0000000000000000e+00" cType="1" res="-9.9000000000000000e+01" rms="0.0000000000000000e+00" purity="5.3335916996002197e-01" nType="1"/>
                <Node pos="r" depth="5" NCoef="0" IVar="-1" Cut="0.0000000000000000e+00" cType="1" res="-9.9000000000000000e+01" rms="0.0000000000000000e+00" purity="3.8363385200500488e-01" nType="-1"/>
              </Node>
              <Node pos="r" depth="4" NCoef="0" IVar="-1" Cut="0.0000000000000000e+00" cType="1" res="-9.9000000000000000e+01" rms="0.0000000000000000e+00" purity="2.9065048694610596e-01" nType="-1"/>
            </Node>
            <Node pos="r" depth="3" NCoef="0" IVar="-1" Cut="0.0000000000000000e+00" cType="1" res="-9.9000000000000000e+01" rms="0.0000000000000000e+00" purity="2.2642005980014801e-01" nType="-1"/>
          </Node>
          <Node pos="r" depth="2" NCoef="0" IVar="-1" Cut="0.0000000000000000e+00" cType="1" res="-9.9000000000000000e+01" rms="0.0000000000000000e+00" purity="1.7036384344100952e-01" nType="-1"/>
        </Node>
        <Node pos="r" depth="1" NCoef="0" IVar="-1" Cut="0.0000000000000000e+00" cType="1" res="-9.9000000000000000e+01" rms="0.0000000000000000e+00" purity="0.0000000000000000e+00" nType="-1"/>
      </Node>
    </BinaryTree>
    <BinaryTree type="DecisionTree" boostWeight="8.5185678926029434e-02" itree="21">
      <Node pos="s" depth="0" NCoef="0" IVar="4" Cut="5.6285488605499268e-01" cType="1" res="-9.9000000000000000e+01" rms="0.0000000000000000e+00" purity="4.6179279685020447e-01" nType="0">
        <Node pos="l" depth="1" NCoef="0" IVar="3" Cut="-6.7751115560531616e-01" cType="0" res="-9.9000000000000000e+01" rms="0.0000000000000000e+00" purity="4.7468364238739014e-01" nType="0">
          <Node pos="l" depth="2" NCoef="0" IVar="4" Cut="6.9296739995479584e-02" cType="1" res="-9.9000000000000000e+01" rms="0.0000000000000000e+00" purity="4.8367905616760254e-01" nType="0">
            <Node pos="l" depth="3" NCoef="0" IVar="4" Cut="7.9696066677570343e-03" cType="1" res="-9.9000000000000000e+01" rms="0.0000000000000000e+00" purity="4.8993366956710815e-01" nType="0">
              <Node pos="l" depth="4" NCoef="0" IVar="-1" Cut="0.0000000000000000e+00" cType="1" res="-9.9000000000000000e+01" rms="0.0000000000000000e+00" purity="5.0286716222763062e-01" nType="1"/>
              <Node pos="r" depth="4" NCoef="0" IVar="-1" Cut="2.3256562650203705e-01" cType="1" res="-9.9000000000000000e+01" rms="0.0000000000000000e+00" purity="4.3268814682960510e-01" nType="-1"/>
            </Node>
            <Node pos="r" depth="3" NCoef="0" IVar="-1" Cut="0.0000000000000000e+00" cType="1" res="-9.9000000000000000e+01" rms="0.0000000000000000e+00" purity="2.7380451560020447e-01" nType="-1"/>
          </Node>
          <Node pos="r" depth="2" NCoef="0" IVar="-1" Cut="0.0000000000000000e+00" cType="1" res="-9.9000000000000000e+01" rms="0.0000000000000000e+00" purity="1.9119377434253693e-01" nType="-1"/>
        </Node>
        <Node pos="r" depth="1" NCoef="0" IVar="-1" Cut="0.0000000000000000e+00" cType="1" res="-9.9000000000000000e+01" rms="0.0000000000000000e+00" purity="0.0000000000000000e+00" nType="-1"/>
      </Node>
    </BinaryTree>
    <BinaryTree type="DecisionTree" boostWeight="1.2781980208091512e-01" itree="22">
      <Node pos="s" depth="0" NCoef="0" IVar="4" Cut="5.6285488605499268e-01" cType="1" res="-9.9000000000000000e+01" rms="0.0000000000000000e+00" purity="4.5110651850700378e-01" nType="0">
        <Node pos="l" depth="1" NCoef="0" IVar="3" Cut="-6.7751115560531616e-01" cType="0" res="-9.9000000000000000e+01" rms="0.0000000000000000e+00" purity="4.6319356560707092e-01" nType="0">
          <Node pos="l" depth="2" NCoef="0" IVar="2" Cut="2.5793368816375732e+00" cType="1" res="-9.9000000000000000e+01" rms="0.0000000000000000e+00" purity="4.7119396924972534e-01" nType="0">
            <Node pos="l" depth="3" NCoef="0" IVar="3" Cut="6.8734246492385864e-01" cType="1" res="-9.9000000000000000e+01" rms="0.0000000000000000e+00" purity="4.7743251919746399e-01" nType="0">
              <Node pos="l" depth="4" NCoef="0" IVar="2" Cut="5.3739696741104126e-01" cType="1" res="-9.9000000000000000e+01" rms="0.0000000000000000e+00" purity="4.8300445079803467e-01" nType="0">
                <Node pos="l" depth="5" NCoef="0" IVar="-1" Cut="0.0000000000000000e+00" cType="1" res="-9.9000000000000000e+01" rms="0.0000000000000000e+00" purity="5.2920722961425781e-01" nType="1"/>
                <Node pos="r" depth="5" NCoef="0" IVar="-1" Cut="0.0000000000000000e+00" cType="1" res="-9.9000000000000000e+01" rms="0.0000000000000000e+00" purity="4.6485000848770142e-01" nType="-1"/>
              </Node>
              <Node pos="r" depth="4" NCoef="0" IVar="-1" Cut="0.0000000000000000e+00" cType="1" res="-9.9000000000000000e+01" rms="0.0000000000000000e+00" purity="3.0841648578643799e-01" nType="-1"/>
            </Node>
            <Node pos="r" depth="3" NCoef="0" IVar="-1" Cut="0.0000000000000000e+00" cType="1" res="-9.9000000000000000e+01" rms="0.0000000000000000e+00" purity="2.4171805381774902e-01" nType="-1"/>
          </Node>
          <Node pos="r" depth="2" NCoef="0" IVar="-1" Cut="0.0000000000000000e+00" cType="1" res="-9.9000000000000000e+01" rms="0.0000000000000000e+00" purity="2.0471426844596863e-01" nType="-1"/>
        </Node>
        <Node pos="r" depth="1" NCoef="0" IVar="-1" Cut="0.0000000000000000e+00" cType="1" res="-9.9000000000000000e+01" rms="0.0000000000000000e+00" purity="0.0000000000000000e+00" nType="-1"/>
      </Node>
    </BinaryTree>
    <BinaryTree type="DecisionTree" boostWeight="1.4578826217105098e-01" itree="23">
      <Node pos="s" depth="0" NCoef="0" IVar="3" Cut="-6.7751115560531616e-01" cType="0" res="-9.9000000000000000e+01" rms="0.0000000000000000e+00" purity="4.6671903133392334e-01" nType="0">
        <Node pos="l" depth="1" NCoef="0" IVar="2" Cut="2.5793368816375732e+00" cType="1" res="-9.9000000000000000e+01" rms="0.0000000000000000e+00" purity="4.7690179944038391e-01" nType="0">
          <Node pos="l" depth="2" NCoef="0" IVar="3" Cut="2.9072010517120361e-01" cType="1" res="-9.9000000000000000e+01" rms="0.0000000000000000e+00" purity="4.8410776257514954e-01" nType="0">
            <Node pos="l" depth="3" NCoef="0" IVar="1" Cut="3.1552445143461227e-02" cType="0" res="-9.9000000000000000e+01" rms="0.0000000000000000e+00" purity="5.0254243612289429e-01" nType="0">
              <Node pos="l" depth="4" NCoef="0" IVar="3" Cut="-2.0901286602020264e-01" cType="0" res="-9.9000000000000000e+01" rms="0.0000000000000000e+00" purity="5.1704323291778564e-01" nType="0">
                <Node pos="l" depth="5" NCoef="0" IVar="-1" Cut="0.0000000000000000e+00" cType="1" res="-9.9000000000000000e+01" rms="0.0000000000000000e+00" purity="5.3243589401245117e-01" nType="1"/>
                <Node pos="r" depth="5" NCoef="0" IVar="-1" Cut="0.0000000000000000e+00" cType="1" res="-9.9000000000000000e+01" rms="0.0000000000000000e+00" purity="4.7424563765525818e-01" nType="-1"/>
              </Node>
              <Node pos="r" depth="4" NCoef="0" IVar="3" Cut="-2.1620869636535645e-02" cType="0" res="-9.9000000000000000e+01" rms="0.0000000000000000e+00" purity="4.2839348316192627e-01" nType="0">
                <Node pos="l" depth="5" NCoef="0" IVar="-1" Cut="0.0000000000000000e+00" cType="1" res="-9.9000000000000000e+01" rms="0.0000000000000000e+00" purity="5.0650358200073242e-01" nType="1"/>
                <Node pos="r" depth="5" NCoef="0" IVar="-1" Cut="0.0000000000000000e+00" cType="1" res="-9.9000000000000000e+01" rms="0.0000000000000000e+00" purity="3.6085110902786255e-01" nType="-1"/>
              </Node>
            </Node>
            <Node pos="r" depth="3" NCoef="0" IVar="3" Cut="5.8223009109497070e-01" cType="1" res="-9.9000000000000000e+01" rms="0.0000000000000000e+00" purity="4.0664562582969666e-01" nType="0">
              <Node pos="l" depth="4" NCoef="0" IVar="3" Cut="4.3177390098571777e-01" cType="0" res="-9.9000000000000000e+01" rms="0.0000000000000000e+00" purity="4.3007251620292664e-01" nType="0">
                <Node pos="l" depth="5" NCoef="0" IVar="-1" Cut="0.0000000000000000e+00" cType="1" res="-9.9000000000000000e+01" rms="0.0000000000000000e+00" purity="5.8051240444183350e-01" nType="1"/>
                <Node pos="r" depth="5" NCoef="0" IVar="-1" Cut="0.0000000000000000e+00" cType="1" res="-9.9000000000000000e+01" rms="0.0000000000000000e+00" purity="3.3485633134841919e-01" nType="-1"/>
              </Node>
              <Node pos="r" depth="4" NCoef="0" IVar="-1" Cut="0.0000000000000000e+00" cType="1" res="-9.9000000000000000e+01" rms="0.0000000000000000e+00" purity="3.4540557861328125e-01" nType="-1"/>
            </Node>
          </Node>
          <Node pos="r" depth="2" NCoef="0" IVar="-1" Cut="0.0000000000000000e+00" cType="1" res="-9.9000000000000000e+01" rms="0.0000000000000000e+00" purity="2.3352724313735962e-01" nType="-1"/>
        </Node>
        <Node pos="r" depth="1" NCoef="0" IVar="-1" Cut="0.0000000000000000e+00" cType="1" res="-9.9000000000000000e+01" rms="0.0000000000000000e+00" purity="1.8440493941307068e-01" nType="-1"/>
      </Node>
    </BinaryTree>
    <BinaryTree type="DecisionTree" boostWeight="1.0225499802926154e-01" itree="24">
      <Node pos="s" depth="0" NCoef="0" IVar="3" Cut="-6.7751115560531616e-01" cType="0" res="-9.9000000000000000e+01" rms="0.0000000000000000e+00" purity="4.6093881130218506e-01" nType="0">
        <Node pos="l" depth="1" NCoef="0" IVar="2" Cut="2.5793368816375732e+00" cType="1" res="-9.9000000000000000e+01" rms="0.0000000000000000e+00" purity="4.6974706649780273e-01" nType="0">
          <Node pos="l" depth="2" NCoef="0" IVar="3" Cut="2.9072010517120361e-01" cType="1" res="-9.9000000000000000e+01" rms="0.0000000000000000e+00" purity="4.7574901580810547e-01" nType="0">
            <Node pos="l" depth="3" NCoef="0" IVar="1" Cut="3.1552445143461227e-02" cType="0" res="-9.9000000000000000e+01" rms="0.0000000000000000e+00" purity="4.8857870697975159e-01" nType="0">
              <Node pos="l" depth="4" NCoef="0" IVar="3" Cut="-4.9010834097862244e-01" cType="1" res="-9.9000000000000000e+01" rms="0.0000000000000000e+00" purity="4.9990835785865784e-01" nType="0">
                <Node pos="l" depth="5" NCoef="0" IVar="-1" Cut="0.0000000000000000e+00" cType="1" res="-9.9000000000000000e+01" rms="0.0000000000000000e+00" purity="6.3999831676483154e-01" nType="1"/>
                <Node pos="r" depth="5" NCoef="0" IVar="-1" Cut="0.0000000000000000e+00" cType="1" res="-9.9000000000000000e+01" rms="0.0000000000000000e+00" purity="4.9174314737319946e-01" nType="-1"/>
              </Node>
              <Node pos="r" depth="4" NCoef="0" IVar="0" Cut="2.4315898418426514e+00" cType="0" res="-9.9000000000000000e+01" rms="0.0000000000000000e+00" purity="4.3024504184722900e-01" nType="0">
                <Node pos="l" depth="5" NCoef="0" IVar="-1" Cut="0.0000000000000000e+00" cType="1" res="-9.9000000000000000e+01" rms="0.0000000000000000e+00" purity="5.3049933910369873e-01" nType="1"/>
                <Node pos="r" depth="5" NCoef="0" IVar="-1" Cut="0.0000000000000000e+00" cType="1" res="-9.9000000000000000e+01" rms="0.0000000000000000e+00" purity="3.9257606863975525e-01" nType="-1"/>
              </Node>
            </Node>
            <Node pos="r" depth="3" NCoef="0" IVar="-1" Cut="2.5513100624084473e+00" cType="0" res="-9.9000000000000000e+01" rms="0.0000000000000000e+00" purity="4.2103675007820129e-01" nType="-1"/>
          </Node>
          <Node pos="r" depth="2" NCoef="0" IVar="-1" Cut="0.0000000000000000e+00" cType="1" res="-9.9000000000000000e+01" rms="0.0000000000000000e+00" purity="2.6062703132629395e-01" nType="-1"/>
        </Node>
        <Node pos="r" depth="1" NCoef="0" IVar="-1" Cut="0.0000000000000000e+00" cType="1" res="-9.9000000000000000e+01" rms="0.0000000000000000e+00" purity="2.0734637975692749e-01" nType="-1"/>
      </Node>
    </BinaryTree>
    <BinaryTree type="DecisionTree" boostWeight="9.8762847419467781e-02" itree="25">
      <Node pos="s" depth="0" NCoef="0" IVar="3" Cut="-6.7751115560531616e-01" cType="0" res="-9.9000000000000000e+01" rms="0.0000000000000000e+00" purity="4.8287156224250793e-01" nType="0">
        <Node pos="l" depth="1" NCoef="0" IVar="2" Cut="2.5793368816375732e+00" cType="1" res="-9.9000000000000000e+01" rms="0.0000000000000000e+00" purity="4.9161031842231750e-01" nType="0">
          <Node pos="l" depth="2" NCoef="0" IVar="3" Cut="2.9072010517120361e-01" cType="1" res="-9.9000000000000000e+01" rms="0.0000000000000000e+00" purity="4.9753484129905701e-01" nType="0">
            <Node pos="l" depth="3" NCoef="0" IVar="1" Cut="3.1552445143461227e-02" cType="0" res="-9.9000000000000000e+01" rms="0.0000000000000000e+00" purity="5.0952166318893433e-01" nType="0">
              <Node pos="l" depth="4" NCoef="0" IVar="-1" Cut="-4.9010834097862244e-01" cType="1" res="-9.9000000000000000e+01" rms="0.0000000000000000e+00" purity="5.2267229557037354e-01" nType="1"/>
              <Node pos="r" depth="4" NCoef="0" IVar="0" Cut="2.5450634956359863e-01" cType="1" res="-9.9000000000000000e+01" rms="0.0000000000000000e+00" purity="4.4131687283515930e-01" nType="0">
                <Node pos="l" depth="5" NCoef="0" IVar="-1" Cut="0.0000000000000000e+00" cType="1" res="-9.9000000000000000e+01" rms="0.0000000000000000e+00" purity="5.2444118261337280e-01" nType="1"/>
                <Node pos="r" depth="5" NCoef="0" IVar="-1" Cut="0.0000000000000000e+00" cType="1" res="-9.9000000000000000e+01" rms="0.0000000000000000e+00" purity="4.0126726031303406e-01" nType="-1"/>
              </Node>
            </Node>
            <Node pos="r" depth="3" NCoef="0" IVar="1" Cut="2.5513100624084473e+00" cType="0" res="-9.9000000000000000e+01" rms="0.0000000000000000e+00" purity="4.4614374637603760e-01" nType="0">
              <Node pos="l" depth="4" NCoef="0" IVar="-1" Cut="0.0000000000000000e+00" cType="1" res="-9.9000000000000000e+01" rms="0.0000000000000000e+00" purity="5.1657879352569580e-01" nType="1"/>
              <Node pos="r" depth="4" NCoef="0" IVar="-1" Cut="1.5583810806274414e+00" cType="1" res="-9.9000000000000000e+01" rms="0.0000000000000000e+00" purity="4.2941942811012268e-01" nType="-1"/>
            </Node>
          </Node>
          <Node pos="r" depth="2" NCoef="0" IVar="-1" Cut="0.0000000000000000e+00" cType="1" res="-9.9000000000000000e+01" rms="0.0000000000000000e+00" purity="2.8080803155899048e-01" nType="-1"/>
        </Node>
        <Node pos="r" depth="1" NCoef="0" IVar="-1" Cut="0.0000000000000000e+00" cType="1" res="-9.9000000000000000e+01" rms="0.0000000000000000e+00" purity="2.2465528547763824e-01" nType="-1"/>
      </Node>
    </BinaryTree>
    <BinaryTree type="DecisionTree" boostWeight="1.1444774312086393e-01" itree="26">
      <Node pos="s" depth="0" NCoef="0" IVar="3" Cut="-6.7751115560531616e-01" cType="0" res="-9.9000000000000000e+01" rms="0.0000000000000000e+00" purity="4.7218698263168335e-01" nType="0">
        <Node pos="l" depth="1" NCoef="0" IVar="2" Cut="2.5793368816375732e+00" cType="1" res="-9.9000000000000000e+01" rms="0.0000000000000000e+00" purity="4.7978594899177551e-01" nType="0">
          <Node pos="l" depth="2" NCoef="0" IVar="0" Cut="1.5736281871795654e-01" cType="1" res="-9.9000000000000000e+01" rms="0.0000000000000000e+00" purity="4.8471486568450928e-01" nType="0">
            <Node pos="l" depth="3" NCoef="0" IVar="-1" Cut="0.0000000000000000e+00" cType="1" res="-9.9000000000000000e+01" rms="0.0000000000000000e+00" purity="5.2500522136688232e-01" nType="1"/>
            <Node pos="r" depth="3" NCoef="0" IVar="0" Cut="2.4474711418151855e+00" cType="0" res="-9.9000000000000000e+01" rms="0.0000000000000000e+00" purity="4.7282415628433228e-01" nType="0">
              <Node pos="l" depth="4" NCoef="0" IVar="3" Cut="4.5548554509878159e-02" cType="1" res="-9.9000000000000000e+01" rms="0.0000000000000000e+00" purity="5.2311801910400391e-01" nType="0">
                <Node pos="l" depth="5" NCoef="0" IVar="-1" Cut="0.0000000000000000e+00" cType="1" res="-9.9000000000000000e+01" rms="0.0000000000000000e+00" purity="5.6027090549468994e-01" nType="1"/>
                <Node pos="r" depth="5" NCoef="0" IVar="-1" Cut="0.0000000000000000e+00" cType="1" res="-9.9000000000000000e+01" rms="0.0000000000000000e+00" purity="4.7419136762619019e-01" nType="-1"/>
              </Node>
              <Node pos="r" depth="4" NCoef="0" IVar="-1" Cut="1.0982871055603027e+00" cType="0" res="-9.9000000000000000e+01" rms="0.0000000000000000e+00" purity="4.4331538677215576e-01" nType="-1"/>
            </Node>
          </Node>
          <Node pos="r" depth="2" NCoef="0" IVar="-1" Cut="0.0000000000000000e+00" cType="1" res="-9.9000000000000000e+01" rms="0.0000000000000000e+00" purity="3.0117806792259216e-01" nType="-1"/>
        </Node>
        <Node pos="r" depth="1" NCoef="0" IVar="-1" Cut="0.0000000000000000e+00" cType="1" res="-9.9000000000000000e+01" rms="0.0000000000000000e+00" purity="2.4232444167137146e-01" nType="-1"/>
      </Node>
    </BinaryTree>
    <BinaryTree type="DecisionTree" boostWeight="9.4364827944292656e-02" itree="27">
      <Node pos="s" depth="0" NCoef="0" IVar="3" Cut="-6.7751115560531616e-01" cType="0" res="-9.9000000000000000e+01" rms="0.0000000000000000e+00" purity="4.7962659597396851e-01" nType="0">
        <Node pos="l" depth="1" NCoef="0" IVar="2" Cut="2.5793368816375732e+00" cType="1" res="-9.9000000000000000e+01" rms="0.0000000000000000e+00" purity="4.8658657073974609e-01" nType="0">
          <Node pos="l" depth="2" NCoef="0" IVar="1" Cut="2.6983890533447266e+00" cType="0" res="-9.9000000000000000e+01" rms="0.0000000000000000e+00" purity="4.9094587564468384e-01" nType="0">
            <Node pos="l" depth="3" NCoef="0" IVar="-1" Cut="0.0000000000000000e+00" cType="1" res="-9.9000000000000000e+01" rms="0.0000000000000000e+00" purity="5.3503644466400146e-01" nType="1"/>
            <Node pos="r" depth="3" NCoef="0" IVar="0" Cut="2.4305491447448730e+00" cType="0" res="-9.9000000000000000e+01" rms="0.0000000000000000e+00" purity="4.8239427804946899e-01" nType="0">
              <Node pos="l" depth="4" NCoef="0" IVar="1" Cut="1.0777386836707592e-02" cType="0" res="-9.9000000000000000e+01" rms="0.0000000000000000e+00" purity="5.2195852994918823e-01" nType="0">
                <Node pos="l" depth="5" NCoef="0" IVar="-1" Cut="0.0000000000000000e+00" cType="1" res="-9.9000000000000000e+01" rms="0.0000000000000000e+00" purity="5.3941321372985840e-01" nType="1"/>
                <Node pos="r" depth="5" NCoef="0" IVar="-1" Cut="0.0000000000000000e+00" cType="1" res="-9.9000000000000000e+01" rms="0.0000000000000000e+00" purity="4.1086900234222412e-01" nType="-1"/>
              </Node>
              <Node pos="r" depth="4" NCoef="0" IVar="-1" Cut="1.9567334651947021e+00" cType="1" res="-9.9000000000000000e+01" rms="0.0000000000000000e+00" purity="4.6575286984443665e-01" nType="-1"/>
            </Node>
          </Node>
          <Node pos="r" depth="2" NCoef="0" IVar="-1" Cut="0.0000000000000000e+00" cType="1" res="-9.9000000000000000e+01" rms="0.0000000000000000e+00" purity="3.2579922676086426e-01" nType="-1"/>
        </Node>
        <Node pos="r" depth="1" NCoef="0" IVar="-1" Cut="0.0000000000000000e+00" cType="1" res="-9.9000000000000000e+01" rms="0.0000000000000000e+00" purity="2.6395165920257568e-01" nType="-1"/>
      </Node>
    </BinaryTree>
    <BinaryTree type="DecisionTree" boostWeight="1.0752074982675638e-01" itree="28">
      <Node pos="s" depth="0" NCoef="0" IVar="3" Cut="-6.7751115560531616e-01" cType="0" res="-9.9000000000000000e+01" rms="0.0000000000000000e+00" purity="4.8638629913330078e-01" nType="0">
        <Node pos="l" depth="1" NCoef="0" IVar="2" Cut="2.5793368816375732e+00" cType="1" res="-9.9000000000000000e+01" rms="0.0000000000000000e+00" purity="4.9283835291862488e-01" nType="0">
          <Node pos="l" depth="2" NCoef="0" IVar="0" Cut="1.9933979511260986e+00" cType="1" res="-9.9000000000000000e+01" rms="0.0000000000000000e+00" purity="4.9674496054649353e-01" nType="0">
            <Node pos="l" depth="3" NCoef="0" IVar="0" Cut="6.9603490829467773e-01" cType="0" res="-9.9000000000000000e+01" rms="0.0000000000000000e+00" purity="5.1291584968566895e-01" nType="0">
              <Node pos="l" depth="4" NCoef="0" IVar="1" Cut="5.5876547098159790e-01" cType="0" res="-9.9000000000000000e+01" rms="0.0000000000000000e+00" purity="5.8834046125411987e-01" nType="0">
                <Node pos="l" depth="5" NCoef="0" IVar="-1" Cut="0.0000000000000000e+00" cType="1" res="-9.9000000000000000e+01" rms="0.0000000000000000e+00" purity="6.3175177574157715e-01" nType="1"/>
                <Node pos="r" depth="5" NCoef="0" IVar="-1" Cut="0.0000000000000000e+00" cType="1" res="-9.9000000000000000e+01" rms="0.0000000000000000e+00" purity="4.9080204963684082e-01" nType="-1"/>
              </Node>
              <Node pos="r" depth="4" NCoef="0" IVar="0" Cut="1.8965239822864532e-01" cType="1" res="-9.9000000000000000e+01" rms="0.0000000000000000e+00" purity="4.9263128638267517e-01" nType="0">
                <Node pos="l" depth="5" NCoef="0" IVar="-1" Cut="0.0000000000000000e+00" cType="1" res="-9.9000000000000000e+01" rms="0.0000000000000000e+00" purity="5.2239227294921875e-01" nType="1"/>
                <Node pos="r" depth="5" NCoef="0" IVar="-1" Cut="0.0000000000000000e+00" cType="1" res="-9.9000000000000000e+01" rms="0.0000000000000000e+00" purity="4.4748708605766296e-01" nType="-1"/>
              </Node>
            </Node>
            <Node pos="r" depth="3" NCoef="0" IVar="0" Cut="2.4672169685363770e+00" cType="0" res="-9.9000000000000000e+01" rms="0.0000000000000000e+00" purity="4.7479671239852905e-01" nType="0">
              <Node pos="l" depth="4" NCoef="0" IVar="1" Cut="6.7317724227905273e-02" cType="1" res="-9.9000000000000000e+01" rms="0.0000000000000000e+00" purity="5.1125466823577881e-01" nType="0">
                <Node pos="l" depth="5" NCoef="0" IVar="-1" Cut="0.0000000000000000e+00" cType="1" res="-9.9000000000000000e+01" rms="0.0000000000000000e+00" purity="5.8912533521652222e-01" nType="1"/>
                <Node pos="r" depth="5" NCoef="0" IVar="-1" Cut="0.0000000000000000e+00" cType="1" res="-9.9000000000000000e+01" rms="0.0000000000000000e+00" purity="4.9618813395500183e-01" nType="-1"/>
              </Node>
              <Node pos="r" depth="4" NCoef="0" IVar="-1" Cut="4.6395686268806458e-01" cType="0" res="-9.9000000000000000e+01" rms="0.0000000000000000e+00" purity="4.1081139445304871e-01" nType="-1"/>
            </Node>
          </Node>
          <Node pos="r" depth="2" NCoef="0" IVar="-1" Cut="0.0000000000000000e+00" cType="1" res="-9.9000000000000000e+01" rms="0.0000000000000000e+00" purity="3.4685739874839783e-01" nType="-1"/>
        </Node>
        <Node pos="r" depth="1" NCoef="0" IVar="-1" Cut="0.0000000000000000e+00" cType="1" res="-9.9000000000000000e+01" rms="0.0000000000000000e+00" purity="2.8268837928771973e-01" nType="-1"/>
      </Node>
    </BinaryTree>
    <BinaryTree type="DecisionTree" boostWeight="7.4706618707651690e-02" itree="29">
      <Node pos="s" depth="0" NCoef="0" IVar="3" Cut="-6.7751115560531616e-01" cType="0" res="-9.9000000000000000e+01" rms="0.0000000000000000e+00" purity="4.9283084273338318e-01" nType="0">
        <Node pos="l" depth="1" NCoef="0" IVar="2" Cut="1.4475043118000031e-01" cType="0" res="-9.9000000000000000e+01" rms="0.0000000000000000e+00" purity="4.9867200851440430e-01" nType="0">
          <Node pos="l" depth="2" NCoef="0" IVar="2" Cut="2.4419038295745850e+00" cType="1" res="-9.9000000000000000e+01" rms="0.0000000000000000e+00" purity="5.0290066003799438e-01" nType="0">
            <Node pos="l" depth="3" NCoef="0" IVar="2" Cut="5.8936625719070435e-01" cType="1" res="-9.9000000000000000e+01" rms="0.0000000000000000e+00" purity="5.0830405950546265e-01" nType="0">
              <Node pos="l" depth="4" NCoef="0" IVar="1" Cut="1.6489428281784058e-01" cType="1" res="-9.9000000000000000e+01" rms="0.0000000000000000e+00" purity="5.3032475709915161e-01" nType="0">
                <Node pos="l" depth="5" NCoef="0" IVar="-1" Cut="0.0000000000000000e+00" cType="1" res="-9.9000000000000000e+01" rms="0.0000000000000000e+00" purity="6.3171082735061646e-01" nType="1"/>
                <Node pos="r" depth="5" NCoef="0" IVar="-1" Cut="0.0000000000000000e+00" cType="1" res="-9.9000000000000000e+01" rms="0.0000000000000000e+00" purity="4.9658998847007751e-01" nType="-1"/>
              </Node>
              <Node pos="r" depth="4" NCoef="0" IVar="2" Cut="1.6650316715240479e+00" cType="0" res="-9.9000000000000000e+01" rms="0.0000000000000000e+00" purity="4.9969172477722168e-01" nType="0">
                <Node pos="l" depth="5" NCoef="0" IVar="-1" Cut="0.0000000000000000e+00" cType="1" res="-9.9000000000000000e+01" rms="0.0000000000000000e+00" purity="5.4141837358474731e-01" nType="1"/>
                <Node pos="r" depth="5" NCoef="0" IVar="-1" Cut="0.0000000000000000e+00" cType="1" res="-9.9000000000000000e+01" rms="0.0000000000000000e+00" purity="4.8526895046234131e-01" nType="-1"/>
              </Node>
            </Node>
            <Node pos="r" depth="3" NCoef="0" IVar="-1" Cut="0.0000000000000000e+00" cType="1" res="-9.9000000000000000e+01" rms="0.0000000000000000e+00" purity="3.5975739359855652e-01" nType="-1"/>
          </Node>
          <Node pos="r" depth="2" NCoef="0" IVar="-1" Cut="0.0000000000000000e+00" cType="1" res="-9.9000000000000000e+01" rms="0.0000000000000000e+00" purity="4.1145387291908264e-01" nType="-1"/>
        </Node>
        <Node pos="r" depth="1" NCoef="0" IVar="-1" Cut="0.0000000000000000e+00" cType="1" res="-9.9000000000000000e+01" rms="0.0000000000000000e+00" purity="3.0499061942100525e-01" nType="-1"/>
      </Node>
    </BinaryTree>
    <BinaryTree type="DecisionTree" boostWeight="9.1360515785879878e-02" itree="30">
      <Node pos="s" depth="0" NCoef="0" IVar="3" Cut="-6.7751115560531616e-01" cType="0" res="-9.9000000000000000e+01" rms="0.0000000000000000e+00" purity="5.0302636623382568e-01" nType="0">
        <Node pos="l" depth="1" NCoef="0" IVar="2" Cut="1.9706903696060181e+00" cType="1" res="-9.9000000000000000e+01" rms="0.0000000000000000e+00" purity="5.0861626863479614e-01" nType="0">
          <Node pos="l" depth="2" NCoef="0" IVar="2" Cut="3.2144886255264282e-01" cType="0" res="-9.9000000000000000e+01" rms="0.0000000000000000e+00" purity="5.1562911272048950e-01" nType="0">
            <Node pos="l" depth="3" NCoef="0" IVar="2" Cut="5.8746182918548584e-01" cType="1" res="-9.9000000000000000e+01" rms="0.0000000000000000e+00" purity="5.2544438838958740e-01" nType="0">
              <Node pos="l" depth="4" NCoef="0" IVar="-1" Cut="1.6489428281784058e-01" cType="1" res="-9.9000000000000000e+01" rms="0.0000000000000000e+00" purity="5.6941395998001099e-01" nType="1"/>
              <Node pos="r" depth="4" NCoef="0" IVar="1" Cut="9.7499364614486694e-01" cType="0" res="-9.9000000000000000e+01" rms="0.0000000000000000e+00" purity="5.1197618246078491e-01" nType="0">
                <Node pos="l" depth="5" NCoef="0" IVar="-1" Cut="0.0000000000000000e+00" cType="1" res="-9.9000000000000000e+01" rms="0.0000000000000000e+00" purity="5.3000009059906006e-01" nType="1"/>
                <Node pos="r" depth="5" NCoef="0" IVar="-1" Cut="0.0000000000000000e+00" cType="1" res="-9.9000000000000000e+01" rms="0.0000000000000000e+00" purity="4.8554217815399170e-01" nType="-1"/>
              </Node>
            </Node>
            <Node pos="r" depth="3" NCoef="0" IVar="-1" Cut="1.9956926107406616e+00" cType="1" res="-9.9000000000000000e+01" rms="0.0000000000000000e+00" purity="4.5521503686904907e-01" nType="-1"/>
          </Node>
          <Node pos="r" depth="2" NCoef="0" IVar="1" Cut="4.3880648910999298e-02" cType="0" res="-9.9000000000000000e+01" rms="0.0000000000000000e+00" purity="4.5310643315315247e-01" nType="0">
            <Node pos="l" depth="3" NCoef="0" IVar="0" Cut="6.8765074014663696e-01" cType="0" res="-9.9000000000000000e+01" rms="0.0000000000000000e+00" purity="4.9638929963111877e-01" nType="0">
              <Node pos="l" depth="4" NCoef="0" IVar="-1" Cut="0.0000000000000000e+00" cType="1" res="-9.9000000000000000e+01" rms="0.0000000000000000e+00" purity="5.4145675897598267e-01" nType="1"/>
              <Node pos="r" depth="4" NCoef="0" IVar="-1" Cut="0.0000000000000000e+00" cType="1" res="-9.9000000000000000e+01" rms="0.0000000000000000e+00" purity="4.2030236124992371e-01" nType="-1"/>
            </Node>
            <Node pos="r" depth="3" NCoef="0" IVar="-1" Cut="0.0000000000000000e+00" cType="1" res="-9.9000000000000000e+01" rms="0.0000000000000000e+00" purity="3.2656621932983398e-01" nType="-1"/>
          </Node>
        </Node>
        <Node pos="r" depth="1" NCoef="0" IVar="-1" Cut="0.0000000000000000e+00" cType="1" res="-9.9000000000000000e+01" rms="0.0000000000000000e+00" purity="3.2105281949043274e-01" nType="-1"/>
      </Node>
    </BinaryTree>
    <BinaryTree type="DecisionTree" boostWeight="8.2852107872183306e-02" itree="31">
      <Node pos="s" depth="0" NCoef="0" IVar="3" Cut="-6.7751115560531616e-01" cType="0" res="-9.9000000000000000e+01" rms="0.0000000000000000e+00" purity="5.0019949674606323e-01" nType="0">
        <Node pos="l" depth="1" NCoef="0" IVar="3" Cut="5.4799151420593262e-01" cType="1" res="-9.9000000000000000e+01" rms="0.0000000000000000e+00" purity="5.0501954555511475e-01" nType="0">
          <Node pos="l" depth="2" NCoef="0" IVar="3" Cut="4.2939239740371704e-01" cType="0" res="-9.9000000000000000e+01" rms="0.0000000000000000e+00" purity="5.0967460870742798e-01" nType="0">
            <Node pos="l" depth="3" NCoef="0" IVar="-1" Cut="0.0000000000000000e+00" cType="1" res="-9.9000000000000000e+01" rms="0.0000000000000000e+00" purity="6.0119479894638062e-01" nType="1"/>
            <Node pos="r" depth="3" NCoef="0" IVar="3" Cut="3.5797074437141418e-01" cType="1" res="-9.9000000000000000e+01" rms="0.0000000000000000e+00" purity="5.0491708517074585e-01" nType="0">
              <Node pos="l" depth="4" NCoef="0" IVar="0" Cut="1.6757299005985260e-01" cType="0" res="-9.9000000000000000e+01" rms="0.0000000000000000e+00" purity="5.1177138090133667e-01" nType="0">
                <Node pos="l" depth="5" NCoef="0" IVar="-1" Cut="0.0000000000000000e+00" cType="1" res="-9.9000000000000000e+01" rms="0.0000000000000000e+00" purity="5.2162104845046997e-01" nType="1"/>
                <Node pos="r" depth="5" NCoef="0" IVar="-1" Cut="0.0000000000000000e+00" cType="1" res="-9.9000000000000000e+01" rms="0.0000000000000000e+00" purity="4.8007637262344360e-01" nType="-1"/>
              </Node>
              <Node pos="r" depth="4" NCoef="0" IVar="-1" Cut="0.0000000000000000e+00" cType="1" res="-9.9000000000000000e+01" rms="0.0000000000000000e+00" purity="3.4155392646789551e-01" nType="-1"/>
            </Node>
          </Node>
          <Node pos="r" depth="2" NCoef="0" IVar="2" Cut="9.5684587955474854e-01" cType="1" res="-9.9000000000000000e+01" rms="0.0000000000000000e+00" purity="4.3264639377593994e-01" nType="0">
            <Node pos="l" depth="3" NCoef="0" IVar="-1" Cut="0.0000000000000000e+00" cType="1" res="-9.9000000000000000e+01" rms="0.0000000000000000e+00" purity="5.7872486114501953e-01" nType="1"/>
            <Node pos="r" depth="3" NCoef="0" IVar="-1" Cut="0.0000000000000000e+00" cType="1" res="-9.9000000000000000e+01" rms="0.0000000000000000e+00" purity="2.6277798414230347e-01" nType="-1"/>
          </Node>
        </Node>
        <Node pos="r" depth="1" NCoef="0" IVar="-1" Cut="0.0000000000000000e+00" cType="1" res="-9.9000000000000000e+01" rms="0.0000000000000000e+00" purity="3.4128406643867493e-01" nType="-1"/>
      </Node>
    </BinaryTree>
    <BinaryTree type="DecisionTree" boostWeight="7.5266803786286349e-02" itree="32">
      <Node pos="s" depth="0" NCoef="0" IVar="2" Cut="2.5793368816375732e+00" cType="1" res="-9.9000000000000000e+01" rms="0.0000000000000000e+00" purity="4.9142199754714966e-01" nType="0">
        <Node pos="l" depth="1" NCoef="0" IVar="2" Cut="1.8136199712753296e+00" cType="1" res="-9.9000000000000000e+01" rms="0.0000000000000000e+00" purity="4.9535271525382996e-01" nType="0">
          <Node pos="l" depth="2" NCoef="0" IVar="1" Cut="5.1263745874166489e-02" cType="1" res="-9.9000000000000000e+01" rms="0.0000000000000000e+00" purity="5.0140899419784546e-01" nType="0">
            <Node pos="l" depth="3" NCoef="0" IVar="2" Cut="1.1219812631607056e+00" cType="1" res="-9.9000000000000000e+01" rms="0.0000000000000000e+00" purity="5.4585677385330200e-01" nType="0">
              <Node pos="l" depth="4" NCoef="0" IVar="-1" Cut="7.0551836490631104e-01" cType="0" res="-9.9000000000000000e+01" rms="0.0000000000000000e+00" purity="5.7681119441986084e-01" nType="1"/>
              <Node pos="r" depth="4" NCoef="0" IVar="-1" Cut="0.0000000000000000e+00" cType="1" res="-9.9000000000000000e+01" rms="0.0000000000000000e+00" purity="4.5246919989585876e-01" nType="-1"/>
            </Node>
            <Node pos="r" depth="3" NCoef="0" IVar="3" Cut="-5.4511386156082153e-01" cType="0" res="-9.9000000000000000e+01" rms="0.0000000000000000e+00" purity="4.9157860875129700e-01" nType="0">
              <Node pos="l" depth="4" NCoef="0" IVar="0" Cut="1.9933406114578247e+00" cType="1" res="-9.9000000000000000e+01" rms="0.0000000000000000e+00" purity="4.9497115612030029e-01" nType="0">
                <Node pos="l" depth="5" NCoef="0" IVar="-1" Cut="0.0000000000000000e+00" cType="1" res="-9.9000000000000000e+01" rms="0.0000000000000000e+00" purity="5.1108205318450928e-01" nType="1"/>
                <Node pos="r" depth="5" NCoef="0" IVar="-1" Cut="0.0000000000000000e+00" cType="1" res="-9.9000000000000000e+01" rms="0.0000000000000000e+00" purity="4.7244298458099365e-01" nType="-1"/>
              </Node>
              <Node pos="r" depth="4" NCoef="0" IVar="-1" Cut="0.0000000000000000e+00" cType="1" res="-9.9000000000000000e+01" rms="0.0000000000000000e+00" purity="4.1589382290840149e-01" nType="-1"/>
            </Node>
          </Node>
          <Node pos="r" depth="2" NCoef="0" IVar="1" Cut="1.9192641973495483e-01" cType="0" res="-9.9000000000000000e+01" rms="0.0000000000000000e+00" purity="4.5414665341377258e-01" nType="0">
            <Node pos="l" depth="3" NCoef="0" IVar="0" Cut="3.3854371309280396e-01" cType="0" res="-9.9000000000000000e+01" rms="0.0000000000000000e+00" purity="4.9109122157096863e-01" nType="0">
              <Node pos="l" depth="4" NCoef="0" IVar="0" Cut="2.3152329921722412e+00" cType="1" res="-9.9000000000000000e+01" rms="0.0000000000000000e+00" purity="5.1166111230850220e-01" nType="0">
                <Node pos="l" depth="5" NCoef="0" IVar="-1" Cut="0.0000000000000000e+00" cType="1" res="-9.9000000000000000e+01" rms="0.0000000000000000e+00" purity="5.5083149671554565e-01" nType="1"/>
                <Node pos="r" depth="5" NCoef="0" IVar="-1" Cut="0.0000000000000000e+00" cType="1" res="-9.9000000000000000e+01" rms="0.0000000000000000e+00" purity="4.8398137092590332e-01" nType="-1"/>
              </Node>
              <Node pos="r" depth="4" NCoef="0" IVar="-1" Cut="0.0000000000000000e+00" cType="1" res="-9.9000000000000000e+01" rms="0.0000000000000000e+00" purity="4.4221377372741699e-01" nType="-1"/>
            </Node>
            <Node pos="r" depth="3" NCoef="0" IVar="-1" Cut="0.0000000000000000e+00" cType="1" res="-9.9000000000000000e+01" rms="0.0000000000000000e+00" purity="3.6024969816207886e-01" nType="-1"/>
          </Node>
        </Node>
        <Node pos="r" depth="1" NCoef="0" IVar="-1" Cut="0.0000000000000000e+00" cType="1" res="-9.9000000000000000e+01" rms="0.0000000000000000e+00" purity="3.4702077507972717e-01" nType="-1"/>
      </Node>
    </BinaryTree>
    <BinaryTree type="DecisionTree" boostWeight="1.1340231326451883e-01" itree="33">
      <Node pos="s" depth="0" NCoef="0" IVar="3" Cut="6.5548598766326904e-01" cType="1" res="-9.9000000000000000e+01" rms="0.0000000000000000e+00" purity="4.9028906226158142e-01" nType="0">
        <Node pos="l" depth="1" NCoef="0" IVar="0" Cut="6.9045573472976685e-01" cType="0" res="-9.9000000000000000e+01" rms="0.0000000000000000e+00" purity="4.9469599127769470e-01" nType="0">
          <Node pos="l" depth="2" NCoef="0" IVar="0" Cut="2.5049536228179932e+00" cType="0" res="-9.9000000000000000e+01" rms="0.0000000000000000e+00" purity="5.1104366779327393e-01" nType="0">
            <Node pos="l" depth="3" NCoef="0" IVar="-1" Cut="0.0000000000000000e+00" cType="1" res="-9.9000000000000000e+01" rms="0.0000000000000000e+00" purity="5.3564262390136719e-01" nType="1"/>
            <Node pos="r" depth="3" NCoef="0" IVar="3" Cut="-1.9527655839920044e-01" cType="0" res="-9.9000000000000000e+01" rms="0.0000000000000000e+00" purity="4.9318704009056091e-01" nType="0">
              <Node pos="l" depth="4" NCoef="0" IVar="1" Cut="2.8433214873075485e-02" cType="0" res="-9.9000000000000000e+01" rms="0.0000000000000000e+00" purity="5.2552765607833862e-01" nType="0">
                <Node pos="l" depth="5" NCoef="0" IVar="-1" Cut="0.0000000000000000e+00" cType="1" res="-9.9000000000000000e+01" rms="0.0000000000000000e+00" purity="5.4659253358840942e-01" nType="1"/>
                <Node pos="r" depth="5" NCoef="0" IVar="-1" Cut="0.0000000000000000e+00" cType="1" res="-9.9000000000000000e+01" rms="0.0000000000000000e+00" purity="4.1443702578544617e-01" nType="-1"/>
              </Node>
              <Node pos="r" depth="4" NCoef="0" IVar="-1" Cut="1.2528150081634521e+00" cType="1" res="-9.9000000000000000e+01" rms="0.0000000000000000e+00" purity="3.9965927600860596e-01" nType="-1"/>
            </Node>
          </Node>
          <Node pos="r" depth="2" NCoef="0" IVar="3" Cut="-2.4751721322536469e-01" cType="0" res="-9.9000000000000000e+01" rms="0.0000000000000000e+00" purity="4.7453993558883667e-01" nType="0">
            <Node pos="l" depth="3" NCoef="0" IVar="1" Cut="1.5214546024799347e-01" cType="1" res="-9.9000000000000000e+01" rms="0.0000000000000000e+00" purity="4.9335020780563354e-01" nType="0">
              <Node pos="l" depth="4" NCoef="0" IVar="0" Cut="1.9634038209915161e-01" cType="1" res="-9.9000000000000000e+01" rms="0.0000000000000000e+00" purity="5.4052352905273438e-01" nType="0">
                <Node pos="l" depth="5" NCoef="0" IVar="-1" Cut="0.0000000000000000e+00" cType="1" res="-9.9000000000000000e+01" rms="0.0000000000000000e+00" purity="6.2017732858657837e-01" nType="1"/>
                <Node pos="r" depth="5" NCoef="0" IVar="-1" Cut="0.0000000000000000e+00" cType="1" res="-9.9000000000000000e+01" rms="0.0000000000000000e+00" purity="3.8963142037391663e-01" nType="-1"/>
              </Node>
              <Node pos="r" depth="4" NCoef="0" IVar="-1" Cut="3.0593988299369812e-01" cType="1" res="-9.9000000000000000e+01" rms="0.0000000000000000e+00" purity="4.7900176048278809e-01" nType="-1"/>
            </Node>
            <Node pos="r" depth="3" NCoef="0" IVar="-1" Cut="1.0533319711685181e+00" cType="1" res="-9.9000000000000000e+01" rms="0.0000000000000000e+00" purity="3.9236402511596680e-01" nType="-1"/>
          </Node>
        </Node>
        <Node pos="r" depth="1" NCoef="0" IVar="-1" Cut="0.0000000000000000e+00" cType="1" res="-9.9000000000000000e+01" rms="0.0000000000000000e+00" purity="3.7573230266571045e-01" nType="-1"/>
      </Node>
    </BinaryTree>
    <BinaryTree type="DecisionTree" boostWeight="9.9684229270010125e-02" itree="34">
      <Node pos="s" depth="0" NCoef="0" IVar="2" Cut="2.5793368816375732e+00" cType="1" res="-9.9000000000000000e+01" rms="0.0000000000000000e+00" purity="4.9195775389671326e-01" nType="0">
        <Node pos="l" depth="1" NCoef="0" IVar="2" Cut="1.8136199712753296e+00" cType="1" res="-9.9000000000000000e+01" rms="0.0000000000000000e+00" purity="4.9547630548477173e-01" nType="0">
          <Node pos="l" depth="2" NCoef="0" IVar="1" Cut="5.1263745874166489e-02" cType="1" res="-9.9000000000000000e+01" rms="0.0000000000000000e+00" purity="5.0032401084899902e-01" nType="0">
            <Node pos="l" depth="3" NCoef="0" IVar="2" Cut="6.6090625524520874e-01" cType="0" res="-9.9000000000000000e+01" rms="0.0000000000000000e+00" purity="5.3969848155975342e-01" nType="0">
              <Node pos="l" depth="4" NCoef="0" IVar="2" Cut="1.0699300765991211e+00" cType="1" res="-9.9000000000000000e+01" rms="0.0000000000000000e+00" purity="5.7451659440994263e-01" nType="0">
                <Node pos="l" depth="5" NCoef="0" IVar="-1" Cut="0.0000000000000000e+00" cType="1" res="-9.9000000000000000e+01" rms="0.0000000000000000e+00" purity="6.6064351797103882e-01" nType="1"/>
                <Node pos="r" depth="5" NCoef="0" IVar="-1" Cut="0.0000000000000000e+00" cType="1" res="-9.9000000000000000e+01" rms="0.0000000000000000e+00" purity="4.8079222440719604e-01" nType="-1"/>
              </Node>
              <Node pos="r" depth="4" NCoef="0" IVar="3" Cut="1.6457572579383850e-02" cType="0" res="-9.9000000000000000e+01" rms="0.0000000000000000e+00" purity="4.9207907915115356e-01" nType="0">
                <Node pos="l" depth="5" NCoef="0" IVar="-1" Cut="0.0000000000000000e+00" cType="1" res="-9.9000000000000000e+01" rms="0.0000000000000000e+00" purity="5.4373943805694580e-01" nType="1"/>
                <Node pos="r" depth="5" NCoef="0" IVar="-1" Cut="0.0000000000000000e+00" cType="1" res="-9.9000000000000000e+01" rms="0.0000000000000000e+00" purity="4.3059834837913513e-01" nType="-1"/>
              </Node>
            </Node>
            <Node pos="r" depth="3" NCoef="0" IVar="2" Cut="8.1405562162399292e-01" cType="1" res="-9.9000000000000000e+01" rms="0.0000000000000000e+00" purity="4.9175170063972473e-01" nType="0">
              <Node pos="l" depth="4" NCoef="0" IVar="1" Cut="1.3162137269973755e+00" cType="0" res="-9.9000000000000000e+01" rms="0.0000000000000000e+00" purity="5.0581270456314087e-01" nType="0">
                <Node pos="l" depth="5" NCoef="0" IVar="-1" Cut="0.0000000000000000e+00" cType="1" res="-9.9000000000000000e+01" rms="0.0000000000000000e+00" purity="5.3436893224716187e-01" nType="1"/>
                <Node pos="r" depth="5" NCoef="0" IVar="-1" Cut="0.0000000000000000e+00" cType="1" res="-9.9000000000000000e+01" rms="0.0000000000000000e+00" purity="4.6005657315254211e-01" nType="-1"/>
              </Node>
              <Node pos="r" depth="4" NCoef="0" IVar="2" Cut="1.2009863853454590e+00" cType="0" res="-9.9000000000000000e+01" rms="0.0000000000000000e+00" purity="4.7714698314666748e-01" nType="0">
                <Node pos="l" depth="5" NCoef="0" IVar="-1" Cut="0.0000000000000000e+00" cType="1" res="-9.9000000000000000e+01" rms="0.0000000000000000e+00" purity="5.1413017511367798e-01" nType="1"/>
                <Node pos="r" depth="5" NCoef="0" IVar="-1" Cut="0.0000000000000000e+00" cType="1" res="-9.9000000000000000e+01" rms="0.0000000000000000e+00" purity="4.3228894472122192e-01" nType="-1"/>
              </Node>
            </Node>
          </Node>
          <Node pos="r" depth="2" NCoef="0" IVar="1" Cut="1.9192641973495483e-01" cType="0" res="-9.9000000000000000e+01" rms="0.0000000000000000e+00" purity="4.6213239431381226e-01" nType="0">
            <Node pos="l" depth="3" NCoef="0" IVar="0" Cut="1.9097578525543213e+00" cType="1" res="-9.9000000000000000e+01" rms="0.0000000000000000e+00" purity="4.9711829423904419e-01" nType="0">
              <Node pos="l" depth="4" NCoef="0" IVar="-1" Cut="0.0000000000000000e+00" cType="1" res="-9.9000000000000000e+01" rms="0.0000000000000000e+00" purity="5.3741484880447388e-01" nType="1"/>
              <Node pos="r" depth="4" NCoef="0" IVar="-1" Cut="0.0000000000000000e+00" cType="1" res="-9.9000000000000000e+01" rms="0.0000000000000000e+00" purity="4.5308467745780945e-01" nType="-1"/>
            </Node>
            <Node pos="r" depth="3" NCoef="0" IVar="-1" Cut="0.0000000000000000e+00" cType="1" res="-9.9000000000000000e+01" rms="0.0000000000000000e+00" purity="3.7033590674400330e-01" nType="-1"/>
          </Node>
        </Node>
        <Node pos="r" depth="1" NCoef="0" IVar="-1" Cut="0.0000000000000000e+00" cType="1" res="-9.9000000000000000e+01" rms="0.0000000000000000e+00" purity="3.5803622007369995e-01" nType="-1"/>
      </Node>
    </BinaryTree>
    <BinaryTree type="DecisionTree" boostWeight="7.7331686139590808e-02" itree="35">
      <Node pos="s" depth="0" NCoef="0" IVar="3" Cut="-6.7751115560531616e-01" cType="0" res="-9.9000000000000000e+01" rms="0.0000000000000000e+00" purity="4.9019405245780945e-01" nType="0">
        <Node pos="l" depth="1" NCoef="0" IVar="2" Cut="1.4475043118000031e-01" cType="0" res="-9.9000000000000000e+01" rms="0.0000000000000000e+00" purity="4.9389961361885071e-01" nType="0">
          <Node pos="l" depth="2" NCoef="0" IVar="2" Cut="2.4419038295745850e+00" cType="1" res="-9.9000000000000000e+01" rms="0.0000000000000000e+00" purity="4.9675866961479187e-01" nType="0">
            <Node pos="l" depth="3" NCoef="0" IVar="1" Cut="5.6491976976394653e-01" cType="1" res="-9.9000000000000000e+01" rms="0.0000000000000000e+00" purity="5.0045037269592285e-01" nType="0">
              <Node pos="l" depth="4" NCoef="0" IVar="1" Cut="-2.8618266806006432e-03" cType="0" res="-9.9000000000000000e+01" rms="0.0000000000000000e+00" purity="5.3205323219299316e-01" nType="0">
                <Node pos="l" depth="5" NCoef="0" IVar="-1" Cut="0.0000000000000000e+00" cType="1" res="-9.9000000000000000e+01" rms="0.0000000000000000e+00" purity="5.6032139062881470e-01" nType="1"/>
                <Node pos="r" depth="5" NCoef="0" IVar="-1" Cut="0.0000000000000000e+00" cType="1" res="-9.9000000000000000e+01" rms="0.0000000000000000e+00" purity="4.3997088074684143e-01" nType="-1"/>
              </Node>
              <Node pos="r" depth="4" NCoef="0" IVar="0" Cut="1.9933406114578247e+00" cType="1" res="-9.9000000000000000e+01" rms="0.0000000000000000e+00" purity="4.8474395275115967e-01" nType="0">
                <Node pos="l" depth="5" NCoef="0" IVar="-1" Cut="0.0000000000000000e+00" cType="1" res="-9.9000000000000000e+01" rms="0.0000000000000000e+00" purity="5.0195813179016113e-01" nType="1"/>
                <Node pos="r" depth="5" NCoef="0" IVar="-1" Cut="0.0000000000000000e+00" cType="1" res="-9.9000000000000000e+01" rms="0.0000000000000000e+00" purity="4.6182841062545776e-01" nType="-1"/>
              </Node>
            </Node>
            <Node pos="r" depth="3" NCoef="0" IVar="-1" Cut="0.0000000000000000e+00" cType="1" res="-9.9000000000000000e+01" rms="0.0000000000000000e+00" purity="3.9339303970336914e-01" nType="-1"/>
          </Node>
          <Node pos="r" depth="2" NCoef="0" IVar="-1" Cut="0.0000000000000000e+00" cType="1" res="-9.9000000000000000e+01" rms="0.0000000000000000e+00" purity="4.3537944555282593e-01" nType="-1"/>
        </Node>
        <Node pos="r" depth="1" NCoef="0" IVar="-1" Cut="0.0000000000000000e+00" cType="1" res="-9.9000000000000000e+01" rms="0.0000000000000000e+00" purity="3.5724905133247375e-01" nType="-1"/>
      </Node>
    </BinaryTree>
    <BinaryTree type="DecisionTree" boostWeight="6.2889962350370143e-02" itree="36">
      <Node pos="s" depth="0" NCoef="0" IVar="3" Cut="-6.7751115560531616e-01" cType="0" res="-9.9000000000000000e+01" rms="0.0000000000000000e+00" purity="4.8748564720153809e-01" nType="0">
        <Node pos="l" depth="1" NCoef="0" IVar="3" Cut="5.4799151420593262e-01" cType="1" res="-9.9000000000000000e+01" rms="0.0000000000000000e+00" purity="4.9058955907821655e-01" nType="0">
          <Node pos="l" depth="2" NCoef="0" IVar="3" Cut="4.2939239740371704e-01" cType="0" res="-9.9000000000000000e+01" rms="0.0000000000000000e+00" purity="4.9341708421707153e-01" nType="0">
            <Node pos="l" depth="3" NCoef="0" IVar="-1" Cut="0.0000000000000000e+00" cType="1" res="-9.9000000000000000e+01" rms="0.0000000000000000e+00" purity="5.6961333751678467e-01" nType="1"/>
            <Node pos="r" depth="3" NCoef="0" IVar="3" Cut="3.5797074437141418e-01" cType="1" res="-9.9000000000000000e+01" rms="0.0000000000000000e+00" purity="4.8950394988059998e-01" nType="0">
              <Node pos="l" depth="4" NCoef="0" IVar="3" Cut="1.9095513224601746e-01" cType="0" res="-9.9000000000000000e+01" rms="0.0000000000000000e+00" purity="4.9529162049293518e-01" nType="0">
                <Node pos="l" depth="5" NCoef="0" IVar="-1" Cut="0.0000000000000000e+00" cType="1" res="-9.9000000000000000e+01" rms="0.0000000000000000e+00" purity="5.3079283237457275e-01" nType="1"/>
                <Node pos="r" depth="5" NCoef="0" IVar="-1" Cut="0.0000000000000000e+00" cType="1" res="-9.9000000000000000e+01" rms="0.0000000000000000e+00" purity="4.8838955163955688e-01" nType="-1"/>
              </Node>
              <Node pos="r" depth="4" NCoef="0" IVar="-1" Cut="0.0000000000000000e+00" cType="1" res="-9.9000000000000000e+01" rms="0.0000000000000000e+00" purity="3.5030695796012878e-01" nType="-1"/>
            </Node>
          </Node>
          <Node pos="r" depth="2" NCoef="0" IVar="2" Cut="9.5684587955474854e-01" cType="1" res="-9.9000000000000000e+01" rms="0.0000000000000000e+00" purity="4.4610700011253357e-01" nType="0">
            <Node pos="l" depth="3" NCoef="0" IVar="-1" Cut="0.0000000000000000e+00" cType="1" res="-9.9000000000000000e+01" rms="0.0000000000000000e+00" purity="5.6681782007217407e-01" nType="1"/>
            <Node pos="r" depth="3" NCoef="0" IVar="-1" Cut="0.0000000000000000e+00" cType="1" res="-9.9000000000000000e+01" rms="0.0000000000000000e+00" purity="2.9728451371192932e-01" nType="-1"/>
          </Node>
        </Node>
        <Node pos="r" depth="1" NCoef="0" IVar="-1" Cut="0.0000000000000000e+00" cType="1" res="-9.9000000000000000e+01" rms="0.0000000000000000e+00" purity="3.7519529461860657e-01" nType="-1"/>
      </Node>
    </BinaryTree>
    <BinaryTree type="DecisionTree" boostWeight="7.9901568034115730e-02" itree="37">
      <Node pos="s" depth="0" NCoef="0" IVar="3" Cut="6.5548598766326904e-01" cType="1" res="-9.9000000000000000e+01" rms="0.0000000000000000e+00" purity="4.9650672078132629e-01" nType="0">
        <Node pos="l" depth="1" NCoef="0" IVar="1" Cut="5.1263745874166489e-02" cType="1" res="-9.9000000000000000e+01" rms="0.0000000000000000e+00" purity="5.0024473667144775e-01" nType="0">
          <Node pos="l" depth="2" NCoef="0" IVar="1" Cut="-1.0234712623059750e-02" cType="0" res="-9.9000000000000000e+01" rms="0.0000000000000000e+00" purity="5.2597558498382568e-01" nType="0">
            <Node pos="l" depth="3" NCoef="0" IVar="1" Cut="5.6337998248636723e-03" cType="0" res="-9.9000000000000000e+01" rms="0.0000000000000000e+00" purity="5.6356936693191528e-01" nType="0">
              <Node pos="l" depth="4" NCoef="0" IVar="-1" Cut="0.0000000000000000e+00" cType="1" res="-9.9000000000000000e+01" rms="0.0000000000000000e+00" purity="7.1381384134292603e-01" nType="1"/>
              <Node pos="r" depth="4" NCoef="0" IVar="0" Cut="1.9951583147048950e+00" cType="1" res="-9.9000000000000000e+01" rms="0.0000000000000000e+00" purity="4.6577641367912292e-01" nType="0">
                <Node pos="l" depth="5" NCoef="0" IVar="-1" Cut="0.0000000000000000e+00" cType="1" res="-9.9000000000000000e+01" rms="0.0000000000000000e+00" purity="5.1982390880584717e-01" nType="1"/>
                <Node pos="r" depth="5" NCoef="0" IVar="-1" Cut="0.0000000000000000e+00" cType="1" res="-9.9000000000000000e+01" rms="0.0000000000000000e+00" purity="3.6633139848709106e-01" nType="-1"/>
              </Node>
